-7.828407517057547893e-02,2.410589743834179455e-02,-1.460600565410111185e-02,-1.405237127097998251e-02,-4.507668735558639089e-02,-9.726539717859500334e-03,-7.113606521237136882e-02,-7.772643977824751638e-02,-4.703417129798419943e-02,-3.120206682349616067e-02,-7.902311537880404857e-02,-4.456290503197429115e-02,8.904188673940729992e-02,7.609544994272132712e-02,-1.992865750420143300e-02,1.852953736097007198e-02,-3.608496038805009132e-02,-9.537961579570847226e-03,4.383822474186568896e-02,-9.010797770147045693e-02,4.131212408073767217e-02,8.775567132988676411e-02,1.245043116251032256e-02,6.223970304749554261e-03,9.396964895912435223e-02,-5.606748993294825845e-02,-5.732186998085553320e-02,-3.576228642711405670e-02,-4.174859926117418379e-02,5.293414600624141153e-02,1.699822202563298912e-02,-7.207822446377346037e-02,5.593350244472564126e-03,5.692945261627446740e-02,-2.795732636025970164e-02,-5.944392508824147825e-02,-4.330289189768008612e-02,-1.435721549879005743e-02,4.934785790710499720e-02,6.520202767881977390e-02,2.613489467617716167e-02,7.575927321106887269e-02,6.228174628242391653e-02,6.495860499832278867e-02,-9.068415808844661197e-02,6.873359060884332017e-02,6.057801756001679472e-03,7.367583197541327511e-02,1.269962221715936757e-02,-8.068528488418269529e-02,1.077571298624871443e-02,3.190404941033397890e-03,3.079962783633075074e-02,5.047251500625149490e-02,-2.400119177215212507e-02,2.756060555737632756e-02,-2.183036227471693569e-03,-3.307857401827679622e-03,-3.847058058151531235e-02,-1.820079833995430496e-03,3.422571038289790035e-02,-8.318729129533247724e-02,-5.458025781263378673e-02,-3.624444472954460594e-02,-3.590499037686392669e-02,-5.420331038618578234e-02,-9.146056117213204051e-02,-5.498085082933570900e-02,1.967297743965408519e-02,4.496873356303887626e-02,6.331686346151382816e-02,9.979724176685772496e-02,4.746081156713036209e-02,3.308871017281653226e-02,-4.460604966446554687e-03,5.686278212802278742e-03,-7.143834582317293291e-03,4.525071179584794212e-02,8.629973582866209969e-02,7.248333563869291396e-02,6.413921693173638139e-02,-1.662124387615329657e-02,3.660010682687736550e-02,-8.050076581498888384e-02,-8.408307176637762337e-02,9.732765331652559748e-02,-2.323136120104622726e-02,3.252422988130404535e-02,3.848980146065791863e-02,6.733609405034729489e-02,6.022588122798974708e-02,-8.859814970457915995e-03,-3.579673005612377112e-03,-3.463441334179576114e-02,6.839871815549605771e-02,4.667454296865053420e-02,-6.991234082154473839e-02,-5.298049691172226905e-02,-8.435907992697705415e-02,1.537506675030989034e-02
-4.610688350881438080e-02,3.983671740959909835e-02,-9.202560624395311750e-03,4.234822474323016173e-02,3.848944142440674510e-02,8.370341815255424867e-02,-9.983947480331079039e-02,-4.719989419281909321e-02,3.268310998864809580e-02,-2.056391056526804539e-02,4.700481121745614388e-02,-1.287826285629964373e-02,8.761019139631609498e-02,3.436339069280697212e-02,7.378804029809160614e-02,-3.364676162012165961e-02,-2.040530018695443926e-02,3.540649019854710811e-02,6.522748648980689068e-02,-9.429693060848001740e-02,-9.570272152065401050e-02,9.399594507983882741e-02,8.538603111361495190e-03,7.208775912052967083e-02,1.895606219932284564e-02,-7.834707430016488172e-02,4.350825230306526459e-03,3.547597821113532279e-02,-5.749333184800471674e-02,9.413271155327637696e-02,3.645345303885577648e-02,-3.351599961647599990e-02,8.884970095723532246e-02,-9.230366069135975682e-02,-6.538659554505860116e-03,3.961008112037825435e-02,-5.369760842986728844e-02,5.602860649383939462e-02,1.504203619957440730e-02,8.300737476445427254e-02,-5.142153720018081270e-02,-2.193621678509342920e-02,-7.657837096140795996e-02,-2.992855720369651251e-02,-1.848924608035826256e-02,-2.348361332298312676e-02,7.493820208211562917e-02,-4.745329286940665192e-02,-4.746186540310892710e-03,4.198557890073800758e-02,-1.382664740976917439e-02,9.864616074319154659e-02,-3.346413169418840927e-02,-2.843545937859001671e-03,6.695111837543402111e-02,-4.097498997933446407e-02,-1.536970279963600916e-02,-4.250056783295284163e-02,-6.257320772474217474e-02,7.295342769128485005e-02,-4.256632251855299587e-02,5.192856203129556092e-02,-8.355999343929204626e-02,-8.757178413069860445e-03,-7.986229066920598474e-02,7.372393377277927651e-02,-7.354980550207633472e-02,6.608811710637307879e-02,3.182976609704402104e-02,1.944810438188571133e-02,4.727690705160070284e-02,3.770673870908677894e-02,-1.852174722920177374e-02,7.454304246420456748e-02,9.419419566370840213e-02,-7.642118715885325153e-02,-1.797810102962622836e-02,-4.544305782607523103e-02,5.693227067951528442e-02,7.815777601876419678e-02,8.529785970607431378e-02,-8.538549060351963149e-02,9.974412363234924639e-02,7.440589401409855586e-02,8.524599723831136067e-02,9.053372334970574697e-02,-2.024771721547136138e-03,7.123833494374592901e-02,-8.852704593729897320e-02,-6.248485108130186205e-02,7.971275867600122189e-02,5.017747657771498559e-02,-4.552422798352789152e-02,-6.023770312094951784e-02,2.371596599855110843e-02,4.176493568977429627e-02,3.420585138902540456e-02,-4.179799137262230069e-02,9.787606194168538276e-02,1.849918416323703685e-04
-3.078146211616983319e-02,9.582663250999631788e-02,5.561004554674711664e-02,-6.007667407383150693e-02,-3.267861728188581338e-02,4.568857412558033348e-02,-5.655415212926576118e-02,-4.236875318974471505e-02,-6.188166211129700334e-02,4.448234941875334192e-02,2.197597578991680733e-02,7.687870410428221390e-02,5.510009198682411236e-02,6.555589323238872335e-02,-7.290191222562442119e-02,5.396859005076481974e-02,-2.032976527229488073e-02,1.261118531501441431e-02,-8.258928866102151212e-02,8.268175444341482883e-02,5.724635454368950938e-02,-1.379278562035016198e-02,-1.211405533001079504e-02,-9.758633489835705221e-02,-7.675356211425264641e-02,2.043766869007870857e-02,9.929867659938768076e-02,6.612560868281769366e-02,-2.791636443136553958e-02,-7.476007977692494810e-02,-3.201605364861377645e-02,6.559328549120491125e-02,-8.809640384801563362e-02,6.842259464908964639e-02,-8.364018102078443762e-02,-5.071340435720115419e-02,-1.085967500877108027e-02,6.517336276635032899e-02,1.050079005752239947e-02,4.553038770563272442e-02,2.748698558701695438e-02,4.008538904167230355e-02,-3.951566780226598713e-02,3.375692900902232951e-02,-8.198626769643231615e-02,-6.565551703669614270e-02,-2.390417432319388857e-02,-3.436776836961051573e-02,-2.948001751560387629e-02,1.211969862824142929e-02,4.963151774270890826e-02,-3.825077694180550186e-02,7.383972687791304224e-02,3.343685781269228885e-03,8.625008096360628485e-02,-7.215428765941703237e-02,-8.140204343292914424e-02,8.164256034366684789e-03,3.103771586210529732e-02,-2.216905413360636956e-02,6.493740007136925008e-02,-9.386943214467052821e-02,-2.192967943411665288e-02,-3.837664016989424109e-02,1.043374447139011618e-02,1.713524676191335860e-02,-1.871759575494813532e-02,1.266888566475052325e-02,4.936826304394983933e-02,8.325642435607322200e-03,8.577191504258629973e-02,4.209971719564203907e-02,7.676157893983012737e-02,-9.275423968229778993e-02,-5.369891647003249141e-02,4.547788895919063767e-02,-8.194513747893775180e-02,6.866460546800454146e-02,-6.111207435648120800e-02,-6.808192082639760723e-03,-9.726846397942745526e-03,-5.868825970627309513e-02,7.487864028943266859e-02,1.128224298750840626e-03,9.432507451220789596e-02,-1.085941651834879118e-02,-5.261251798280706243e-02,-3.893533183405633452e-02,-3.660629264346278167e-02,-8.405145654045531600e-02,-7.793614263875435488e-02,-2.402980401216281425e-02,-6.093708729186404771e-02,-5.290337486155147900e-02,-7.207382524266936485e-02,-9.893182087254426271e-02,9.119101431458107032e-02,-1.193983907757996399e-02,7.418881111382893967e-02,-9.491334475931754999e-02
4.076032935045514893e-02,-7.471387395355397198e-03,3.842510287261469148e-02,8.367826559719435120e-02,-4.174482076366146238e-02,7.810476077514116877e-02,-5.325492903480355533e-02,-1.533530768292573621e-03,-7.205574944099953083e-02,1.460133497480542442e-02,-5.285592928713660904e-02,5.842674877217746143e-02,-4.353050215075666973e-02,-4.940852470257870582e-02,-3.773201276726625975e-02,-8.158894967863750125e-02,7.883378994430534359e-02,-3.073342733738021471e-03,9.685417658428244203e-02,3.885035621443364007e-02,7.783493907705335557e-02,-6.241250271545648737e-02,5.306905156985949890e-02,-3.592067242655865023e-02,-2.993948706457720543e-02,3.116203616414042754e-02,-5.168206159238489250e-02,-8.079948352934121503e-02,-3.810281429823092481e-03,4.807347713814244528e-02,5.062838335570593595e-02,-1.490188748810580832e-02,-9.598304746195618353e-02,3.441767893759109520e-02,-4.585627436632966347e-02,-2.809071701335151550e-02,8.905544338566748208e-02,-5.102734622126001846e-02,9.383899519199301320e-02,3.647689056109407191e-02,1.557567224144425222e-02,7.705735459054782743e-02,-8.377104911022976996e-02,-8.001606487090869024e-02,9.014618728375620171e-02,2.786474034346730910e-02,6.937028057279664983e-02,3.863770748339473426e-02,-8.166906100559589987e-04,-5.988677282236254396e-02,-3.986090555776522493e-02,7.527277741318325055e-02,-1.551539296326150119e-02,1.469509576913234639e-02,2.493999692482204433e-02,-8.043534988557504706e-02,-3.720896634231565803e-02,-4.064385580642853463e-02,2.397147622271120215e-02,3.538416876664962629e-02,-2.216956711178492967e-02,2.405002428719600627e-02,3.507989977552145033e-02,6.155849980216768214e-02,-4.687283114238487841e-02,-4.595483082140439102e-02,9.448555236030345417e-02,-8.282021172325393366e-02,9.447612544180361560e-03,-4.051553845926430392e-02,2.450764906338571969e-02,-3.025305577573825233e-02,9.379261590369916690e-02,1.360095476447828466e-02,8.472516372417665531e-02,-1.370537348030922975e-02,2.388061762186480252e-02,8.718664853409918702e-02,8.665112512408512657e-02,6.075840103864313391e-02,-8.150901285959516462e-02,-2.611442531250285359e-02,-8.601380292673786732e-02,-1.637343780631489443e-03,-2.417861291943382285e-02,7.106344358571622943e-02,9.701714812492034934e-02,8.716859898243894955e-02,7.321487300926754482e-02,9.619915026413847214e-02,4.922543343651114567e-02,7.121747485211127326e-02,-2.743495391543582240e-02,4.855580984208779372e-02,5.933269735422810887e-03,6.215382685167489263e-02,7.184260428063357629e-02,1.149345955309535872e-03,-1.184954659009536393e-02,-5.521208607790113743e-02
-2.830196633507559012e-03,6.038755171427220847e-02,4.834783091363567542e-02,-9.671008596919526690e-02,3.910534274296328938e-02,8.868933127078293399e-02,-7.159611709874538765e-02,2.036934432363440850e-03,9.851742028802537576e-02,3.413886910409003050e-02,-7.125673617682222460e-02,3.777985719837417822e-02,2.547657010139009470e-02,2.457791196019629143e-02,6.854371907779205353e-02,-1.856684503180813794e-03,7.700729707694350945e-02,-1.420973437516175053e-02,-7.444700122432618139e-03,7.609672415994422900e-02,-8.432443550197815663e-02,-8.172219090322162260e-02,-6.006385451198179709e-02,5.988944437071508364e-02,3.724611030189900474e-02,-9.040680166332670797e-02,1.962157309908510450e-02,9.128780413259701687e-02,-4.718362184143627680e-02,1.056672747938861012e-02,-5.658819242848350112e-02,-7.869111306535021833e-02,8.146584640019408075e-02,-8.813031071556837182e-02,-3.329428060430049408e-02,7.769263015487773427e-02,-9.251355323835884492e-02,-7.366120406635270901e-03,-8.878624168328855260e-02,8.953040225971517496e-02,-6.523654832165744211e-02,-8.455538028002758388e-02,-7.033350762358077379e-02,-5.353617790057088599e-02,8.016315258412617939e-02,-2.426591669155120368e-02,3.099590335980256794e-02,-6.940455108030228748e-02,7.254592743036772373e-02,-5.504678566734860085e-02,-1.757453849576520732e-02,-5.694818676738440388e-02,-2.655779567239165140e-02,8.129359426333140903e-02,9.222916520991983336e-02,3.986416531794476081e-03,8.577145981522457663e-02,5.578755000456070423e-02,-7.126484749833678078e-02,2.228825138446494103e-03,3.144705870848835128e-02,7.178318731996566338e-02,6.808062717097415617e-02,6.474045463281449808e-02,7.246738146968897953e-02,-7.026708074970498819e-02,7.026981284686995011e-02,1.806267459393159913e-02,-9.292066951362187854e-02,8.192055841320142195e-02,-4.629396342014269194e-02,6.569720213944271747e-02,9.928867422512241414e-02,4.894597645380535655e-02,-1.561936138112407502e-02,-7.645454387813153951e-02,8.619405873345004077e-03,6.861855948476827671e-02,5.076154130120086316e-02,-2.457717776385430486e-02,-9.037874354682362554e-02,-8.238921847195335157e-02,2.526676435747779448e-02,-1.256164723049890686e-02,-2.275083000016198120e-02,3.075139372428015161e-02,-3.161727059814152530e-02,-9.110346108577305202e-03,-9.595438691814431320e-02,-5.675557057313454501e-02,4.936430366353086741e-02,2.851584861450873198e-02,9.648845231041147663e-03,1.686308244717567295e-02,9.838268068067221317e-02,7.742892688283850577e-02,1.553565570507246807e-02,-2.877483905882471937e-02,-3.996730043071217153e-02,6.483023905152249244e-02
9.603755463771829204e-02,9.884251018718898107e-03,-7.922045360833965266e-02,-8.375875308581265388e-02,-6.825697520870795121e-02,-1.593778081285945891e-02,6.742518958440185672e-02,4.281806970174401039e-02,-8.809839123556872931e-02,1.632589704246187323e-02,-4.935436000078246427e-02,-3.761104513506557251e-02,6.142137752155735209e-02,5.893109365810056399e-02,-1.969186637012315666e-03,-6.191895207492817410e-03,-4.532348448377707811e-02,1.740277536839354711e-02,8.832487028502875037e-02,5.801521953517227437e-02,3.508895458163469039e-02,1.789395423672775209e-02,5.550193445216455856e-03,-5.580772499554416399e-02,8.795058972804711828e-02,-9.151130183615852065e-02,-7.767440131028249817e-02,1.481413079053998938e-02,8.334666093011472432e-02,-1.430581446861130257e-02,-6.396362939558655758e-03,-9.824592007621618661e-04,4.472223497720489993e-02,5.326580719886292448e-02,6.322782516302677402e-02,-2.387387707253847691e-02,-9.547225649296071925e-02,4.844428702689904109e-02,3.952998032880383761e-02,-2.823539191458972197e-02,-9.353203159742480566e-02,5.007060761954368333e-02,3.931608882476514411e-02,-9.188340739290240533e-02,-1.834585107288959349e-02,6.551870028884274055e-02,-4.380222365793129402e-02,-4.033903077788270064e-02,-2.600101058599749160e-02,-8.840667648848217486e-02,-2.187993352962133708e-02,3.416914599493217630e-02,4.266618213940781557e-03,-4.425349050786269584e-02,-5.511684454428503188e-02,-9.871071042303442011e-02,3.290190910478441033e-02,-4.554552306934987055e-02,-7.961386056822382373e-02,6.344109609597928245e-02,-9.664325576967530695e-03,1.188027239418951164e-03,-7.541613411700778813e-02,-8.170808060834622299e-02,1.439236022378324875e-02,-8.413236401901649786e-02,9.525484651545343406e-02,-9.140907619765659131e-02,-8.809691854148463119e-02,9.681939805034245339e-02,2.088363796572190179e-02,-7.303021344615256982e-02,-3.731969134816214007e-02,4.484517421350403543e-02,-2.501534531109594894e-02,5.767771575417390828e-02,-7.270026531436908634e-02,-9.965127269062096227e-03,-8.171788329571585963e-02,3.658362594042594007e-02,1.395942563699892336e-02,-3.975936592275325365e-03,8.989706997498744800e-02,-7.863102256508087973e-02,3.992561304499736563e-02,6.444191238245494668e-02,1.095397027342008556e-02,-3.669909483349453883e-02,8.549152110261332149e-03,-4.761743587673279710e-02,-4.193853251056496589e-02,-1.578165693594690833e-02,1.641901717584101639e-02,-2.831807356055296432e-02,-9.877455226695026902e-02,6.588532030161034503e-03,-1.691617663125546955e-02,-8.191209397085433275e-02,1.298832171005029346e-02,-6.783382608725327390e-02
8.454500811547113748e-02,-9.228305153583943321e-03,4.810334778536873301e-02,-8.434359674259644946e-02,-1.372843158863649993e-02,1.266844861430167779e-02,9.849058473208313624e-02,3.442915690743947321e-02,-4.226428237112014874e-02,-6.470131970790356235e-02,1.050992026463340445e-02,-4.280384001611346051e-02,-6.536356486450262127e-03,2.875312661750803467e-02,-4.698206721616866866e-02,-9.246860987560596989e-02,2.669463505972219375e-02,-4.097049626115115140e-02,7.564679805131452328e-03,5.261060455476132547e-02,-8.156311637395746716e-04,5.246722528794722784e-02,8.487418113171754652e-02,6.576590416806210593e-02,8.646714623244231013e-02,4.955163398089401650e-02,-4.299544376991507044e-02,2.742883948485477785e-02,-8.646963821219784407e-02,6.480040758684976754e-02,1.062694109192185987e-02,3.818186024385630817e-02,-2.139456986065654820e-02,2.042748741754449315e-02,-5.236319124120823038e-02,7.163419355375316711e-03,-4.406997900220324671e-02,2.320852166483666768e-02,-9.917476515028995909e-02,4.506359937968404394e-02,8.817156227817540826e-02,5.362062119453989140e-02,8.663043497438413509e-02,9.556274806865422411e-02,-9.636260505028167167e-02,2.041292641966774291e-02,-4.931682203596539360e-02,-2.145267042274363878e-02,5.252349865011213259e-02,7.925298834343866283e-02,-5.458526028328165858e-02,-7.517306512509461247e-02,-8.489688222413463436e-02,6.838282707363890767e-02,-3.367570811308362444e-02,5.917911149544821670e-02,4.163979722874666667e-02,-7.797616981169826211e-02,5.425782455123445702e-02,8.823450934576229643e-02,-3.591355357454750763e-02,9.603853925586824936e-03,5.372605736773947149e-02,-2.264823039152766282e-02,1.513511696822129882e-02,3.611399757183608727e-02,6.427371709239648734e-02,-7.234743369100871124e-02,-2.382989794488102331e-03,4.339233068348977151e-02,-1.032488126388964034e-02,5.339731361826657863e-02,-4.999177347783639175e-02,4.642443677763935517e-02,7.431217077027976736e-02,-2.253075934087349352e-02,-6.142256691549470571e-02,-1.262617940501700731e-02,-3.769966540714282666e-02,8.015913720845371793e-02,-6.421121277050587106e-02,-1.794099013955674504e-02,1.948992938637678085e-03,-4.034988688855548067e-02,5.200233509941840082e-02,4.645093282078907593e-02,-9.646467098395726525e-02,-1.880642445582278444e-02,1.705201247713480917e-02,-3.914417383040400683e-02,6.723078975861199180e-02,6.585947528839022902e-02,-1.121030508322304331e-02,-4.795903845766409657e-02,2.703503636164722446e-02,-6.134240699131779384e-03,-9.038065853949922568e-02,3.734823817309401717e-02,4.902187304435678961e-02,-5.343215069946019580e-02
7.927732275631216297e-02,3.659292238676642439e-02,7.844487727920462783e-02,-4.747638031461076658e-02,5.505088103100547192e-02,4.258416976188314496e-02,4.007402684719219010e-02,4.767858089896506724e-02,-6.088787046042432038e-04,-7.155241231118908418e-03,-2.479444636649752454e-02,1.847460076163151554e-02,-4.093565744316107757e-02,6.756641120106207654e-02,4.244622902107608731e-02,-8.886616136462328897e-02,-8.221070433469615524e-02,2.926415045266944626e-02,5.620907267440200528e-02,4.332061169526751909e-04,-4.914776117750077611e-02,-8.364458676988424657e-02,3.288290332970358887e-02,-3.082165932485673998e-02,6.256507384173518038e-02,-1.357023974066284833e-02,3.609367870979249271e-03,6.291093395984817538e-02,1.468570378497750795e-02,6.537404131721755163e-02,-2.514788249255262009e-02,-6.245524681669228223e-02,-3.752402098303724703e-02,7.063080521711156967e-02,9.603413107660949133e-02,3.996011485358785809e-02,8.054260876991570228e-03,-2.432441743005502033e-02,7.178822239055407395e-02,4.070955503724368874e-02,-2.571283248251020337e-02,1.380334469716401613e-02,-8.258571913824308552e-02,6.819517014157366885e-03,1.425869292422972390e-02,-5.405785437676287331e-02,4.308507427806257395e-02,4.554911282741841427e-02,-8.325707422966838189e-02,3.436012945364924631e-02,5.313003204593463868e-03,-6.647601502192995726e-02,8.079306969203020605e-02,-3.435543174226277086e-02,-6.628527691998482851e-02,1.236453384128681499e-02,-9.326808249760501490e-02,-2.259967832215736827e-02,3.222948855598259388e-02,2.940293088616571793e-02,1.014565615277233934e-02,4.745646374155737535e-02,-3.644713964617032897e-02,-8.943367957641211452e-02,2.300916453484902480e-02,-9.081844648373574302e-02,4.347071016749037842e-02,-7.072651202338703369e-02,-3.331780742328703526e-02,-2.836808229799199499e-02,8.380179003697293960e-03,-6.769531374839454774e-02,-3.370814483020830032e-02,3.816225146284932257e-02,-7.835147712023529665e-02,-6.904561245797127822e-02,-9.385124868528132991e-03,-5.265028827576978543e-02,9.440693232754490682e-02,-4.262554382311285750e-02,1.509896150035476559e-02,-1.924101132721951768e-02,-9.461308062277920539e-03,3.725205819893381842e-02,9.949611012765435802e-02,-6.104847817172072422e-02,-7.060353681224114386e-02,-1.014002184081236324e-03,3.908917468376696402e-02,-8.771105282010421833e-02,-9.069977566548580172e-02,-6.158185072157373874e-03,-9.220305313931043134e-02,-8.764624386488942265e-02,-8.573477383704426746e-02,-7.776662259572764135e-02,1.749200166824374514e-02,3.013769773410807096e-02,1.992646829499415684e-02,2.203305717552550558e-02
8.643788373334104769e-02,9.670301184838200892e-02,-4.790789307060514673e-02,4.190638811176977674e-02,-6.692746645838015818e-02,-5.258839618393884585e-02,6.640926706688252135e-02,6.093938713442031974e-02,3.158489017013829669e-02,5.755089128109250329e-02,-7.474223483654125755e-02,3.194780496568749850e-02,6.672611995431626530e-02,-2.936294402565178818e-02,1.142424613385002730e-02,7.749421660299768422e-02,-4.637843541758915333e-02,5.626454224321397746e-03,1.303073751499153610e-02,1.417614590503639416e-02,5.692944113117162641e-02,5.567616404266290120e-02,1.925923037704883878e-02,7.931166216220508769e-02,2.859835152867643004e-02,7.646009510990334213e-02,-7.258674671511824994e-02,4.974127968204913874e-03,-3.547605997639151354e-02,5.924055875526282322e-02,2.901311474946238755e-02,2.821784779847874569e-02,7.901570746591354832e-02,3.371615209830219895e-02,-7.190658853863672595e-02,-5.484205880572363967e-02,1.551635635445050565e-02,-4.399847079254060045e-02,7.049393925707678199e-02,4.913235421401970782e-02,-8.281852029879732680e-02,-5.044276710213801973e-02,-6.508348045161133077e-02,-9.665350175837193747e-02,7.854351014686067334e-02,-8.279118705326604655e-03,-6.461159111872100125e-02,1.372265139034327397e-02,8.009212756749525819e-02,-9.950882855092849089e-02,4.934775092588189471e-03,-5.013676577496211512e-02,7.427860791978152522e-02,6.973699067856559131e-02,1.236759655650646050e-02,5.431142563575769300e-03,5.747612631113183101e-02,-3.006342829958717766e-02,-6.555794560429081819e-02,5.231854776928537842e-02,-3.308487233053898635e-02,-8.302140164464477667e-02,-5.661360545593679267e-02,4.081016947716692433e-02,6.397945178013889067e-02,-2.117960927479664579e-02,6.286168945725698065e-02,7.786124582225029123e-02,-8.299989091699433441e-02,8.212029813239019038e-02,1.850832768146670748e-02,-1.723422244427312566e-02,-4.057302338880906106e-02,-3.694850325358366161e-02,-9.887505325421305780e-03,3.752586850688380271e-02,-6.832629793603037238e-02,-1.054019203093289891e-02,-1.235715469693940416e-02,1.805984360647831799e-02,-3.290493280437038759e-02,-4.426426520463506986e-02,-3.053464449507532763e-02,5.306047652549780724e-02,1.016901697253505543e-03,-8.830816715126857397e-02,7.005120736546771587e-02,-6.892055491878767981e-02,-6.320696502224235069e-02,3.902682043611677143e-02,8.566180652314028809e-03,8.809957489154779386e-02,-7.052584249351433188e-02,-1.104764140881471512e-02,8.407262428534753584e-02,4.994440574573169589e-03,-2.347246494265715910e-02,5.267929783718994230e-02,-2.737247175584915648e-02,-7.124212963698761669e-02
-7.322647667072353095e-02,1.765063620551762802e-02,-1.613824051470628962e-02,1.789288858338018706e-02,4.879733028188004695e-03,8.590331649179067108e-02,-7.025414390636171291e-02,4.473820385644136643e-02,6.784463558575887232e-02,-2.184813046690131655e-03,6.305775475615763015e-02,-6.267760729580157397e-02,2.486938218485473806e-03,3.270040573228233383e-02,-8.228357450519055427e-02,1.789216565126941494e-03,-7.157065531570448724e-02,2.226741881567788350e-02,-2.256611507956199358e-02,-7.807782526805549794e-02,7.067722111379043382e-03,-6.656593244039460400e-02,2.188812054052172162e-02,-6.264882542365321494e-02,5.937010587113314419e-02,3.886745781704420422e-02,6.521746352967219829e-02,8.675875305871710852e-02,4.277124018604108735e-02,3.353178775447857030e-02,-1.506549999510047033e-02,-9.965020693633563909e-02,2.311337568494878369e-02,-6.029804649689129992e-02,3.121120769801133399e-02,-9.762028120811497289e-02,-5.756182416064850593e-02,-7.283649788509526102e-02,1.629642467148850749e-02,-6.398957727256444905e-02,1.616795864920421433e-02,-1.134146681612895058e-02,8.964477196264947212e-02,4.780181086806112312e-02,9.079061236676830293e-02,2.945663860158967418e-02,-7.033056829061495874e-03,-8.789645220624145439e-02,8.250747711599185075e-02,-6.154656115023669077e-02,-2.762197875367858324e-02,3.126010868994993919e-02,2.923258325458907847e-02,-3.608994157897527089e-02,-1.387621501527618040e-02,6.376294852657177215e-02,-3.396888230904211714e-02,-2.675459653892948986e-02,5.992822722885690623e-02,4.231024106255590334e-02,9.848613837129788218e-02,-1.365354585476737104e-02,7.083014874199775046e-02,1.950581532270359575e-02,-9.895269574578897942e-02,5.664239762966313818e-02,9.318259895218150568e-02,3.886562482749858494e-02,5.902156976369402064e-02,-9.097792116355458980e-02,2.052483627202510152e-02,6.478897673675571012e-03,7.144216763569147255e-02,6.676486814349300025e-02,-9.300203106987603441e-02,2.655778943371411849e-02,-8.650405050565335152e-02,1.654399270773783404e-02,-4.585271117459950585e-02,-9.871765925003578301e-03,1.885690127058932408e-02,-9.338163653230024952e-02,3.334934042163922863e-02,-8.762779634516049132e-02,-7.769826524044419480e-02,6.804186597364650368e-02,-2.476246416465596734e-02,-7.867478484204513955e-02,-1.626771512505767459e-02,-6.166205153085973362e-02,2.402699622546793090e-02,-7.332112314434960365e-02,2.390905016960812035e-02,9.957336390234045043e-02,-1.713662817586265874e-02,-5.203598460024227990e-02,-2.293404455697516109e-02,3.500827320092184114e-02,6.612325322400833261e-02,3.729384029383062127e-02
-3.461759595760019459e-02,6.595398951690770173e-03,8.210619966324408936e-02,9.288041087534185114e-03,-9.340915713903946704e-02,-1.587606503272456782e-03,-8.763930188946718325e-02,-4.234070639354719362e-02,4.030971932479368580e-02,-2.252103918195103027e-02,4.265816982604866969e-02,5.607264085427857148e-02,-2.496311885399464525e-02,-2.369698442827154750e-02,5.365304129183859350e-03,-2.247746936570056697e-02,1.278412755092479813e-02,4.761730853892010007e-02,-1.033776143358171307e-02,-5.323099095255526270e-02,-5.750298687003361359e-02,-5.085003318981845544e-03,9.711497921634826280e-02,1.465631959322266642e-02,-5.777595872979937597e-02,-4.039692757960436365e-02,5.454980612035703613e-02,9.979358037650254420e-02,-7.417599070080987955e-02,3.657121536456492406e-02,-6.595816891129009651e-02,-4.759833788768204343e-02,4.740145828024150410e-02,-2.001445126580998768e-02,-6.148382073593663955e-02,-3.158163155880397421e-03,-2.337211681062718871e-02,7.171771112409705551e-02,3.621665864975767701e-03,1.032471291218499398e-02,-5.192155500331696594e-03,8.820659037665604107e-02,9.053969883736309732e-02,3.241799768348624378e-03,-8.199183034013989013e-02,-2.532226817928406870e-02,-8.528768697403860122e-02,-6.083396141825252873e-02,3.057689989184980695e-02,6.512619840678526839e-02,-9.932952836528696761e-02,-3.098059774045446024e-02,7.517903288872621048e-02,3.654603926545041404e-03,-1.815316226760503582e-02,-3.690121098573728720e-02,9.043102260421362337e-02,-8.459678516245870694e-02,-2.972878971566679518e-02,1.799808852520920488e-02,9.356104973151929682e-02,5.773854569344299970e-02,2.503500625119836620e-02,4.886695132074111991e-03,2.499993007837182646e-02,-3.573832445578144223e-02,7.063487526920064763e-02,6.091301099309695544e-02,9.860508343335155912e-03,5.771288538914801092e-02,-9.008406619328224174e-03,6.222616400027899952e-03,8.346690483444282882e-02,-4.886859990852243651e-02,8.461668753917625518e-02,-3.336910560595550412e-02,1.380426649583091359e-02,-5.918036559710735528e-02,6.502378731296051817e-02,5.250729086411556890e-02,5.733124770738645681e-03,-9.998868154400514241e-03,-9.995280007987127069e-02,-4.480510497484171961e-03,-1.057359981986587261e-02,-3.476782758126410744e-02,2.650830222172625983e-02,-2.973450329555862859e-02,5.423821723078581236e-02,-7.938712279581378040e-02,-1.067927738349536138e-02,-4.919161490515591706e-02,-8.737536542313216470e-02,8.249915587028491815e-02,8.922626560339316781e-02,-8.859175433904359354e-02,2.121561381470955798e-02,2.044149785626017679e-02,-8.753381408821277188e-02,-2.664503125737956168e-02
3.085711136648530695e-03,-2.824691405501866814e-02,-5.452187008183154160e-02,-5.584522805199716722e-02,-6.473605403971632866e-02,-5.833875994856674296e-02,-6.392655887852258245e-02,-3.748792265993948492e-02,5.760886883818122639e-02,8.354427245153506210e-02,3.092777689955142351e-02,-4.316276280615038985e-03,5.007501328766658655e-02,-9.474918993657813204e-02,7.682700103091974486e-02,8.365626347580795708e-02,-8.945128000925849088e-02,-6.116979146783450144e-02,-1.678182551833753977e-02,4.550651958135776276e-02,-1.357442083735564686e-02,-6.563094807938987807e-02,-6.854927291201431960e-02,-1.220311315017963416e-02,3.465784250479711504e-02,3.334873107370989187e-02,1.145180397984342513e-02,1.269513658858326122e-02,2.883528120607509182e-02,-9.499419340496709219e-02,-1.436635084851427269e-02,6.887949359864761756e-02,-5.247521253680773740e-02,-1.566987927948174097e-02,3.396241146017012213e-02,9.655527199249261394e-02,8.428559456111536785e-02,-7.204782338194753999e-02,1.189383448948881650e-02,-5.030139759692156542e-02,-4.686460131589181149e-02,5.361415271595498799e-02,-7.283104789535393975e-02,-6.022431946958815147e-02,7.173179323047618183e-02,5.925177451238014537e-02,3.559576872338129916e-02,1.676609232047017450e-02,-6.305357182984500097e-02,-2.876824534264355027e-02,-5.786825656998169365e-02,-9.008923510579508465e-02,4.124918505408403657e-02,7.951300088263144050e-02,3.581786553577390175e-02,8.141983348306636170e-02,7.716480827305446932e-02,2.367402295578532878e-02,9.360466986776644349e-03,8.151078767077699072e-03,-6.395415766179024519e-02,7.111622606767936672e-02,-4.407855195797270170e-02,3.778522903740255678e-03,6.658800844422216314e-02,1.471861000976200373e-02,2.103400217363604607e-02,8.912548097078726306e-02,-9.351946739730541969e-02,3.738607846121519418e-02,3.072936318654534427e-02,8.299420526210776750e-02,6.097697533720677909e-02,-4.009224451662660865e-02,-2.172802944570470518e-02,-7.604173960775384433e-02,-1.243378217290361243e-02,-5.340458441754323410e-02,1.898744685023083523e-02,7.689365911189646741e-02,-2.065536474079746054e-02,7.809871077616831192e-02,-1.131838274560995061e-02,1.705398550023864979e-02,5.035697479661727094e-02,-1.912151100247153068e-02,4.115879515078785245e-02,-8.985442881383848279e-02,4.797413158275282141e-03,-5.678268345477557877e-02,6.829310733476659512e-02,-9.719780359188941177e-02,-7.565402344371102705e-02,-9.957504491922285206e-02,-6.835724105173895948e-02,-5.343412665933611194e-02,-3.169933505884819924e-03,8.437989124459630008e-02,-4.881241167963332878e-02,-4.130539620471314344e-02
1.755311964385631793e-02,5.218645195064361419e-02,-9.747689711954011724e-03,-5.163891804696257859e-02,-8.157735925893110085e-02,-3.877916080625949669e-02,7.499618583155810703e-02,-3.149043574799029882e-02,-7.760438122199397881e-02,-1.254018762570054991e-02,1.051340767234141020e-03,-1.177818737624973175e-02,4.098674690311727986e-02,-3.088376665661487011e-02,4.135196802184541026e-02,9.966085363633990502e-02,2.533744922952031742e-02,-7.356200818232695726e-02,-9.763694795079214117e-02,-6.403573479255009193e-02,-9.732271119836165968e-03,-2.430673048073324002e-02,9.323868621125576406e-02,-1.535807987028980914e-02,-1.212466796783780339e-02,8.205015116288448540e-02,7.477585817310467009e-02,1.567279187317427783e-02,1.061287316921542476e-02,4.046560174879281629e-02,-9.171392198925411299e-02,-9.568795221656606342e-02,-5.669085922491368806e-02,1.716717447147337802e-02,5.571911873579482762e-03,3.415941674883893331e-02,-3.469129935705383971e-02,7.820013636229737608e-02,8.010587022128365375e-02,-4.414980479528120977e-02,-2.456349851396075201e-02,2.799245663739569762e-02,-7.545071883187098871e-02,7.215632157926342438e-02,-3.924510565630295877e-02,-5.911202802797285195e-03,5.688383192591808801e-02,2.387118950091091443e-02,-9.929252452250562910e-02,-9.685180905888561564e-02,3.855386336380632606e-02,-4.879612661217161418e-02,-7.456680670977704206e-02,-5.622443020765717503e-02,-2.480726209478157154e-02,7.701069909402367963e-02,2.237284639803348990e-02,-5.320974347300889973e-02,1.802643511438987989e-02,-6.891278974932349422e-02,-3.960587442332479807e-02,-5.333883855699778076e-02,-2.165256005401158812e-02,9.861651969675432061e-02,4.720352686264194658e-02,5.995829851594423714e-03,7.508604511342588383e-02,-2.951699196817358321e-03,2.504199776174421271e-02,6.256276138609749571e-02,-1.696105340804181238e-02,-5.466722765423619873e-02,-6.879374276009188327e-02,4.227855499244242282e-02,-4.296592911165685036e-02,5.843307396357956714e-03,9.556112023425446245e-02,9.445863830365203162e-02,-3.276510480710306816e-02,7.962415266151291748e-02,4.706179494596576807e-02,4.367085997719954982e-02,9.593364218314257008e-02,-3.961783477005297038e-02,-6.667456012066966253e-02,9.377145439584771980e-02,2.200321105229658195e-02,-2.307939114835428490e-02,-4.900179829638746237e-02,-5.823431727126173602e-02,6.985303839089872235e-02,4.308607707241345064e-02,-5.793841998026957180e-02,-3.360065257609792626e-03,7.350243731698484148e-03,5.417350583591212798e-02,3.628640160271892623e-02,-4.574455698331053588e-02,-9.135863681248068691e-02,1.448562171007337744e-02
-1.809690980362911941e-02,-7.686020847573296622e-02,5.708919044127726966e-02,-7.109783157129784259e-02,-7.563625936159849850e-02,-1.136941193477350454e-02,5.036250389291432872e-02,-5.077866731935559014e-02,3.070790340966275331e-02,-8.701324132872409467e-02,-7.151770280238782529e-02,-1.002717569122812263e-01,8.230383797671519952e-02,-5.495999185510101748e-02,-3.320610016343897297e-02,4.304967859403850683e-02,5.228676454734269147e-02,7.728491521186468816e-02,-2.757031320524414367e-02,-1.801721983851397105e-02,1.051452141574354439e-02,-4.050189101398650460e-02,3.746220133411000408e-02,3.435677507445030615e-02,-7.984827798371570140e-03,-5.295036127045430092e-03,9.879652201547940715e-02,3.231029519475007994e-02,-9.085261562740599983e-02,-5.908427523949631027e-02,3.709150380159099286e-02,-6.257673032252246414e-02,-1.869308448241377082e-02,-1.463222668253899052e-02,-3.583848515125067496e-02,4.581329566832108291e-02,1.608301422080960375e-03,-9.811568970489463470e-02,-6.189127554669297121e-02,-7.352302504909620506e-02,-5.651955808358168770e-02,-7.953794925467552734e-02,-2.969361548541146756e-02,2.649796961622117447e-02,7.222210982772314658e-02,3.657906283349569160e-02,-2.734050495660297203e-02,8.907723076076844160e-02,1.535094424891868259e-02,-3.334880051940513658e-03,5.008984438028670806e-03,-2.242663707713937749e-02,-2.156845621306787558e-02,6.129981823292427606e-02,-1.455879233912394689e-02,-1.617035030060848949e-02,-4.360120403345213447e-02,2.700704678548428855e-02,2.878247412503702127e-02,-2.815346514163787409e-02,6.786918114113711653e-02,5.367923339374143510e-02,-8.959146417463269285e-02,-9.296912751571638489e-02,9.108628102483080913e-02,2.322678742760704226e-02,7.244034017397463221e-02,-4.068481344960334783e-02,-2.162940173543520528e-02,-3.008628454318386901e-03,-7.252553760882540779e-02,-7.688182063851482784e-02,5.430513938203254329e-03,-6.471895557079498928e-02,-9.284061333722182230e-02,5.149583759187391363e-02,4.029060278034243131e-02,2.814942768158257974e-02,2.455737627049390387e-02,-3.052087263866096190e-02,5.467396215744770721e-02,-6.012624489831742275e-02,-4.057567767741571130e-02,-6.715029746614580020e-02,-6.786858816717983300e-02,-3.061780498706270781e-02,-4.763666239546315156e-02,1.465299663503801322e-02,-5.359290324559540936e-02,9.153363538932934862e-02,-6.149283050802507172e-02,-3.995638532257306079e-03,-2.416383157560573688e-02,-8.466106028971713549e-02,-2.725549726223001901e-02,-7.084468832252832637e-03,-3.188910315068121254e-02,6.157926847662960335e-02,3.065356042441617218e-02,-9.040736930397781645e-02
2.315450544616766415e-02,2.209062695243205199e-02,-6.380420933128594374e-02,3.933067666120697303e-02,-6.642289583465622871e-02,-9.202675298535403781e-02,-6.331398819676047063e-02,-9.097297195620104859e-02,4.663695671512849139e-02,-1.397936229710569980e-02,-5.781331507687065968e-02,6.066054743927933035e-02,9.686402255132607608e-02,2.834184729986588200e-02,-6.010206477177203188e-02,1.656782279135059557e-02,-2.188618037760784330e-03,2.267534177706980944e-02,-3.024292124452083314e-02,6.957258686440302708e-02,6.287622952708302182e-02,-2.420008723515313168e-02,8.777878383095139014e-02,5.782861032815643509e-02,-3.686459496787852785e-02,-3.692724560501205872e-03,-3.755218487936693578e-02,-5.621487933956086785e-02,9.755800071293635467e-02,4.862267691569701483e-02,-9.661986337606247310e-02,5.976512839378812086e-02,-6.977327739207664359e-02,2.149715077456275294e-03,-8.853800172766877752e-02,-4.226558885877647331e-02,-8.561901074985547866e-02,7.205189813860016224e-02,-4.384895745169909570e-02,1.926522974352569764e-02,1.693880997537357616e-02,-2.278012246122285839e-02,5.391761914992515559e-02,-1.464128295809226030e-02,-6.290345288445699234e-02,-5.893235789519951640e-02,-7.339381791731411364e-02,-3.905443109529405099e-02,-3.601856043201442925e-02,3.969582401587491011e-02,-9.904073046240749467e-02,-6.523686485565841076e-02,8.182351630729957012e-03,-2.872342127875019899e-02,-9.380817759189833890e-03,8.721469609626249231e-02,4.318709632762741252e-02,7.540665541903920910e-02,9.078057505842875019e-03,-4.396397821529965388e-02,-3.019125546723638517e-02,-7.446367421114935548e-02,4.119732614465979048e-02,-1.628281298377664763e-02,-5.134628024230664806e-02,7.445662845936734664e-02,-1.855907159948341767e-02,2.094633231355493702e-02,9.611467738145375306e-02,-3.594035658248362353e-02,7.386919972473304785e-02,-1.749440563953228236e-02,3.408553543102491035e-02,-9.712666962526610159e-02,-7.505268782941960926e-02,2.658197929697585140e-03,-8.063552556161740492e-02,7.618306377364326976e-02,7.023721674635220215e-03,6.309764397226205745e-03,6.854108268107432511e-02,1.912369290838281111e-02,-4.108184995034937226e-02,6.973517038488913355e-02,-6.562273261045137307e-02,1.431734312282124250e-03,1.485616319761018204e-02,9.571652568953002704e-02,6.206652469721071763e-02,8.948975098390611616e-02,-9.781305652839833442e-02,2.976698197372319374e-02,7.808748575933649461e-02,6.495385615499632559e-02,9.856619241795626374e-02,5.024760128382151081e-02,7.354880302109402523e-02,3.019437945611745666e-02,-9.375376507777123669e-02,1.129791861125827197e-02
7.875135331573447639e-04,-5.792566831012424533e-02,3.381874522389712642e-03,9.822407818104597621e-02,7.580218847197486842e-02,6.962274842576070266e-02,-7.121434058395108291e-02,2.491665975250650575e-02,-7.450775206595698641e-02,5.964914611582847193e-02,6.485811050401232847e-02,-2.361509470455292262e-02,-7.091864638397846199e-02,9.877279916317327491e-02,-1.418440688342942520e-02,-8.694663577009403843e-02,7.569448858376107148e-02,-7.376533471270373121e-02,2.395069433058582761e-02,3.366811863053289361e-02,-1.794554432630077190e-02,-4.690935995391876806e-02,6.917440307843436033e-03,-1.463476218602041863e-02,-9.158932552145977735e-02,5.724986595812242562e-02,-2.506763744362559831e-02,4.113185740865225176e-02,4.358936520001915199e-02,-8.099920670565054215e-02,3.232704493513021554e-02,3.433956040477214450e-02,4.692898186148496825e-02,-9.106344584752837368e-02,-1.296952227335925086e-02,-3.227921902876144944e-02,-1.614208428768861697e-02,7.096625002140347083e-02,1.500846102938294992e-02,1.720641575060251989e-03,1.796150452527477126e-02,-9.893785316891769155e-02,1.343379444013939432e-02,-2.438493524581361940e-02,2.932064229102388994e-02,-6.758677526106997291e-02,-9.506618796967672425e-02,3.734774969935096556e-02,-3.520489243370928528e-02,9.383513153026994125e-02,-1.140977189018657460e-02,-3.312793175810263557e-02,-1.688360300989209112e-02,-8.628975210380653016e-02,6.005410535448453546e-02,3.299825863028554851e-02,3.409793795135071526e-02,5.424981968915606328e-02,3.939895851470774646e-03,6.797410695543903980e-02,-2.965315173362387952e-02,6.237095390392003585e-02,-5.406671070469997592e-02,-2.863759753081890000e-02,4.884828068826743697e-02,-1.779501887453710865e-02,6.348342191524634914e-02,-2.218271060397521491e-02,6.622312658562355681e-02,7.386420204994122163e-02,6.186876969268723797e-02,8.071445005021275765e-02,-8.467522869538512964e-02,1.858455376544880175e-02,3.008334276297543186e-02,8.845758943668576013e-02,-2.456710365460072418e-02,4.163929753902319980e-02,-6.470629967267586824e-02,2.958994080301216925e-02,-7.956284745347522169e-02,-1.951659364018579895e-02,1.652659763263012241e-02,-3.515397935866302476e-02,2.351271151509801496e-02,-2.275358812450490112e-02,-9.702682045972872704e-02,4.208510354534535092e-02,7.524754229948778239e-02,3.900066438142862218e-02,-4.881759483500767473e-03,8.849608913812966049e-02,1.476882842925534168e-03,-1.073801700345439723e-02,9.218210883577604431e-02,-5.803256674226330014e-02,-8.117948814223736875e-02,-6.031757840682380745e-02,-6.818896086292279383e-03,-9.065846322307791194e-02
4.531734293059253016e-02,1.206459430787547304e-02,9.233616571439809406e-02,-2.467252386031679179e-02,-8.773701754229233651e-02,9.290459667273415212e-02,3.845468324766246337e-02,-4.899801248283566779e-02,7.758128133212244260e-02,-8.002268712169297027e-02,9.997861672505320429e-02,-7.722704224987007871e-02,-9.168745429223218446e-03,-1.269195897994716826e-02,4.132182425971889228e-02,5.554494443011773197e-02,1.303311324336886567e-02,-3.082806407122283543e-02,-1.116062573433722338e-02,3.525377402478332978e-02,9.133192848773938333e-02,-4.623576711057106325e-03,-8.296188284442683469e-02,-3.071385415020953802e-02,4.260153452940396157e-02,2.795461889018988066e-02,1.224334283848468874e-02,5.173186536888346732e-02,-5.216236525609094926e-02,-9.677057790973025986e-02,-7.921389867081490843e-03,4.669381160750174509e-02,-8.832193579114133719e-05,-6.155555574119531137e-02,-2.334555451485746669e-02,-2.139849366987436885e-02,6.907046941599301326e-02,6.791116079292272567e-02,-9.443751574035907925e-02,-8.135215832043973805e-02,-4.909052892940508894e-02,-2.939004267914310797e-03,5.613772586292772870e-02,-5.391192270337152870e-02,3.108696362167631677e-02,4.137663381143869001e-02,7.578423624630115096e-02,6.524623635297044366e-02,6.413199898908583663e-02,7.718636188551072919e-02,7.233017046443621090e-02,6.913725698148207033e-02,-5.188023619891202198e-02,-1.029265570680910902e-02,1.472819069270341064e-02,-1.299586126432754341e-02,-6.052557320286120618e-02,-2.147785534058462009e-02,8.645184922881321565e-02,-2.924805215045445106e-02,1.684373808700175001e-02,-7.227496393746860037e-02,1.766656526729977472e-02,2.843738084596378335e-02,3.657777224271671623e-03,-5.293742846658600065e-02,-9.754896026385601049e-03,1.266806564662384393e-02,4.520151642679967607e-02,4.482176432399884169e-02,7.407863654929144892e-02,-4.047656039010513740e-03,-2.624317654406667366e-02,-8.796578120874601336e-02,-2.862264176001554083e-02,-6.625321204645207018e-02,-1.743963440616991267e-02,6.367845728145746231e-02,3.113824111808435879e-02,6.273266754859294081e-02,-9.781662381859382305e-02,5.004815238710563774e-02,5.984910482816535593e-02,7.326020258317766931e-02,2.169450007511533607e-02,3.414731987778019118e-02,6.914163110303947479e-02,-3.043267044216813044e-02,3.092716984878704500e-02,9.514198842910223664e-02,3.563814357143257894e-03,4.036865425036759158e-02,4.139231611192201177e-02,4.699576075396155739e-02,4.165123882968740920e-02,-2.930414903827131823e-02,-8.655230341902840629e-02,4.947636832100912874e-02,-2.911929863275956876e-02,-3.659292492579289957e-02
5.770733518459189582e-02,-8.302502372367587258e-02,-6.312650670181968460e-03,-1.994062082491557253e-02,-1.417062848865013880e-02,2.064059079944480235e-02,-9.096210188957097598e-02,6.014212630119372682e-02,-1.102795454778596196e-02,-1.177713826808717001e-02,-4.267363611231489440e-02,5.728836584818386424e-02,-8.340948141638770963e-02,6.465135567499069591e-02,9.261953111544038442e-02,9.355066171423148669e-03,-8.804749690050120425e-02,-3.333298572280106453e-02,-8.628683622963764788e-02,-4.624152453281167585e-02,4.343785946325132152e-02,-8.050516253591566418e-02,-5.132757359464899111e-02,9.289608434872684284e-02,-9.452975504755777025e-02,7.967545791938382416e-02,-2.322785750563045870e-02,-2.646960650193240505e-02,9.088220490522963546e-03,1.063397533301375930e-02,-1.232066793333992660e-02,4.465202804612306009e-02,-2.409935694131845607e-02,6.724180540967678033e-02,9.217569022250335364e-02,-1.252904000290808173e-03,9.878897201874473066e-03,6.249901022023227060e-02,-9.342258757879891296e-02,8.266422200740983217e-02,-6.288916590209539526e-03,7.634381746570859106e-02,8.598833670756120262e-02,9.161237038542252575e-02,-5.111305988739063555e-02,-3.874772074443127295e-02,7.744526266789505953e-02,6.182219309891689996e-02,3.466113291485117820e-02,1.486638492282474355e-02,-4.844538661882640679e-02,8.542637366879732297e-02,-7.349569080378769159e-02,-3.718449138371708595e-02,-9.470816595613401612e-02,-3.421589204743660795e-02,-7.468381166418421035e-02,-8.842583417481648944e-02,-4.572195095151190825e-02,8.128134671409720236e-02,7.597863252897060771e-03,-7.810415734093550943e-02,-6.654739280142629720e-02,9.058549130625737078e-02,2.273029016549230064e-02,4.849300050167440479e-02,-9.052309313700830640e-02,-5.054831246880261975e-03,1.986804848163092885e-02,-6.914522824097146803e-02,-1.331375853002110532e-02,-8.395850065918170069e-03,6.178029625636261013e-02,-6.765363726666695499e-03,4.838141031692647087e-02,2.867686780375255928e-02,7.029208834975883557e-02,3.645774211083491201e-02,-9.809235716226925861e-02,7.881179447151881456e-02,9.856405005798610230e-02,-5.633036281131292844e-03,5.401616700923780878e-02,-7.652924529826879430e-02,7.658815964005771804e-02,-3.206504248938948920e-02,-1.293053804562085962e-02,-5.326968795360052106e-02,-5.770355928739184098e-02,3.397225933620970362e-02,-1.641136466376522107e-02,3.852061236292897428e-02,-9.285445357450855530e-02,-5.732639100650534225e-02,-9.719889583517700438e-02,-7.834399714698868367e-02,9.820553675166374119e-02,-9.972840511464985125e-02,-9.455063923195468345e-02,-8.930593650807150397e-02
6.355787052553019123e-02,9.789175570968289275e-02,-5.817001623581594810e-02,7.390561176885279693e-02,-9.964893567790487905e-02,2.332894794039067077e-02,5.294816623494719154e-02,6.292405513217066981e-02,8.855228608062759577e-03,-4.041808265618556523e-02,-5.017418499153507988e-02,1.887700581794278520e-02,3.452214225052396834e-02,3.149912678693053691e-02,1.969280524499121554e-02,7.735351770492310264e-02,-1.735345459533318979e-02,-9.824028267406192949e-02,-3.786168227612771858e-02,8.747572651377036324e-02,7.364921003065497129e-02,4.931323301706314055e-03,3.581847344343097594e-02,-2.867794774253429324e-02,4.302714314941355478e-02,-7.066976914768058338e-02,-8.556837288158003485e-02,-6.944189900863384501e-02,-3.478866364198003602e-02,-4.029600198422229884e-02,6.406203300915003229e-02,2.110741998133450203e-02,-6.390237846770036034e-02,3.304318422475727157e-02,2.365302959700969765e-02,-2.356475466206903180e-03,-5.837679116228039478e-03,4.133541274913746233e-02,8.027370395090510646e-02,-8.621153414581816943e-02,-6.701860112929114432e-02,8.981703165028306901e-02,-6.027051391584108825e-02,-4.766476618421355838e-02,-9.262468438898814604e-02,1.122922802120147889e-02,5.741773473996486521e-02,1.644734896571715954e-02,7.475133628922034368e-02,-5.306359350010823178e-02,3.154734009877147027e-02,2.248421678663117818e-02,1.037007482140787917e-02,7.736842726728471176e-02,3.911915611542715610e-02,-2.390469176055057265e-02,-9.605319277200674577e-02,3.661820961798417651e-02,-9.066613972143532096e-02,-8.604059218468362857e-02,2.023738594487300979e-02,-4.526912704069150500e-02,1.428160716889248505e-02,8.853959780350445508e-03,-2.181101918421361752e-02,5.197143902112155711e-02,-2.019334893414410914e-02,-3.701852786111452243e-02,-2.228815291582822433e-02,7.437962257081937034e-02,9.034679200940556876e-02,7.288651096264428531e-02,-4.236175783987286558e-02,5.290729101045177352e-02,-5.150397141570683957e-02,-7.175507127972800825e-02,9.921869245608294641e-02,4.407213586270403161e-02,-9.271169637968740274e-02,7.854080619970171817e-03,2.928503887670955153e-02,9.712127386004776319e-02,-8.566656164367487947e-02,9.348466781318737207e-02,1.290353279103997886e-02,-8.588508000021821687e-02,5.855795512069544850e-02,-5.683743013578035352e-02,-1.858115995858122815e-02,7.249560325280487993e-02,8.638052893124700815e-02,2.887673222352746261e-02,-5.349834111497767108e-03,-6.557369972918491996e-02,-9.620690845717033701e-02,-1.898194289488557007e-02,9.850307948520684032e-02,-2.710037784521378279e-02,4.453216873065110604e-02,-3.833647197361074455e-02
-7.244328438655048275e-02,5.605007498069738969e-02,3.260134048188673139e-02,-9.699938010532510591e-02,5.092553056614959606e-02,9.306302009514777485e-02,-9.561716075217455146e-03,-7.546415497844570497e-02,-1.212014615380330174e-02,-5.175098397265864847e-02,1.184535819468357509e-02,-7.963612227408531363e-03,-3.473265516486614968e-02,-8.062651730815148521e-03,6.806231964821082836e-02,5.596955169485992587e-02,7.209413909436149237e-02,-6.652236744679385083e-02,-3.460172692311036524e-02,9.355158465545523883e-02,-4.008390034775055621e-02,1.113677095398932226e-02,3.442869537398043911e-02,-8.963027736544640356e-02,-9.268739782201829147e-02,-5.632756113649104585e-02,3.866232121674745281e-02,-9.876184600247960022e-02,-7.295419883504770941e-02,7.613585777467712923e-02,-8.553309385910992657e-02,8.116953747538152575e-02,8.954797059624924893e-02,9.450716958465016360e-02,-3.588319892227673225e-03,9.469110380837836294e-03,-9.458335115893889977e-03,-7.767185607119256319e-02,8.146155205647162556e-02,3.651282961342475208e-02,7.095124779339331833e-02,6.476888844993256011e-02,-5.543551800784940475e-02,8.646457907907889595e-02,-5.748310379112436114e-02,9.752475370362034823e-02,-4.895652386873064477e-02,-5.001030291970236935e-02,-1.787301917171142673e-02,4.235863982573206954e-02,2.964831341250534491e-02,-1.963378340224999907e-02,6.547269789968995779e-02,-1.747237271586603302e-02,1.607628246665453176e-02,-8.722601411879396527e-02,3.108898241162283416e-04,4.299938374747469538e-02,1.417995540115388198e-03,6.217377645777150130e-02,5.756476523359285724e-02,1.329769365160968220e-02,3.136132068127456263e-02,-1.637219172107631793e-02,3.828775956509014589e-02,4.408955912346357309e-03,-9.483874908342500298e-02,-7.893123558133093021e-02,-4.766833162447257216e-02,-1.541376236726454962e-02,7.564750874255146695e-02,6.205125330743629930e-02,2.379437328630018555e-02,-4.566955573503755916e-03,-2.515648329224726143e-03,-8.624150551333822912e-02,-1.667639632574560715e-02,-9.379127171350053194e-02,7.022063724985988520e-02,4.655679177199861796e-02,1.921869878376972207e-02,-8.544571760048098874e-02,-9.351603606055158835e-02,-6.743689858447549090e-02,6.423607420837948445e-02,6.138693670384195999e-02,3.266866115036626272e-02,-2.864566168517231060e-02,-8.196262926237728175e-02,-7.984984999622957158e-02,-9.637533920043517277e-02,1.857001226684588946e-02,4.370025125384019438e-02,-5.467882152090839526e-02,-2.230007037081024879e-02,-2.314179934413425344e-02,9.758266997013917421e-03,-8.882580307269738462e-03,8.922574695754217911e-02,-3.315734002043828343e-02
3.816422783095385629e-02,-6.742971992696192296e-02,-8.267260234463612301e-02,-2.225219837824890523e-02,-2.919230054381982686e-02,5.765738170116302408e-02,-7.588708401438229445e-02,8.005307301513509000e-02,8.531912780175421318e-02,-1.883401408855980841e-02,8.066803448748735561e-02,8.170867879971580039e-02,-6.153839125168829999e-02,8.168082669853224398e-02,3.659046471756161045e-02,-4.719837253929679705e-02,-6.276843283836366916e-02,-2.764231620547719093e-02,-3.392636915118683871e-02,4.201388691274152154e-02,9.479665102150633404e-03,3.041675053139616947e-02,-2.270925374977450506e-02,-1.856318637506863822e-02,-5.810217606495757942e-02,6.370647289796724233e-02,-6.623961870430868093e-02,-3.835847778478012476e-02,5.420871308143840328e-02,8.260364825954524814e-02,-7.314932966736326092e-03,-1.184236991943717066e-02,-1.519683835265987770e-02,-1.866635605420427502e-02,4.945117405550916723e-02,-1.802179637616159458e-02,-9.798195127147729666e-02,-9.070575286862841979e-02,-6.578866134452648895e-02,-2.488759897569028934e-02,-6.748026754870337096e-03,-4.135778114632298469e-02,-7.984532198987966123e-02,-5.283279657017769804e-02,5.742755739980315299e-03,-4.130529655252266480e-02,-7.896606606116546301e-03,-1.055768160861469962e-02,-9.191737940086602832e-02,7.465474640010016927e-03,-5.051829947475675042e-02,-2.549385858371067126e-02,-9.678845988883577611e-03,3.625550682226580390e-02,-8.526170793145976257e-02,-4.478930301954704707e-02,5.605926742062122825e-02,-4.083017987720574671e-02,-2.211247177336557457e-02,-8.136996145290742444e-02,7.621972287707587390e-02,-6.872222538115319024e-02,9.242994655696196160e-03,3.236054185768211244e-02,5.482696324112615316e-02,-4.392782587461119270e-02,2.431103578918911157e-02,7.910450271443933423e-02,-6.356845614552586454e-02,1.874402541638083008e-02,9.880008296385331401e-02,-1.157730470511639242e-03,8.945234687133624130e-03,-4.505441147333355545e-02,7.715158971221564022e-02,4.167351096512575404e-02,-2.596189235534156203e-02,7.367050811380354558e-02,-6.276207759046040224e-02,-1.496035302189061000e-02,-9.377944254493303378e-02,-7.520050828105227791e-02,6.268183026811938174e-03,7.646315820543603259e-02,8.995229292725184789e-03,8.882199198565476905e-02,7.336014612387947720e-02,-5.840147950394345561e-02,-6.731633242573792364e-02,4.233936401018742468e-02,-3.786199537659939995e-02,-6.768828112154551269e-02,-4.987371644156422118e-02,-8.633633700119117127e-02,3.477949051698359106e-02,-7.712489621686179075e-02,4.703573113115472326e-02,-6.954925698604591533e-03,-9.812365787519894411e-02,-6.530130720079072026e-02
7.507633112119968533e-02,-1.577651651859690585e-02,4.545140229743488414e-02,-7.652766984385994675e-02,-1.100960115865187716e-02,-1.276788103681518460e-02,7.548367227289196069e-02,-7.492897148203025992e-02,-7.105755983751789462e-02,8.780365196795936189e-02,-4.518099741550168219e-02,1.964329364155097124e-02,-7.235975518659537586e-03,-7.530510936880879802e-02,3.948546873294822568e-03,6.897597849069167508e-02,3.254982226764924214e-02,4.435710451382793296e-02,2.756763537529383079e-02,-3.332649213072236272e-02,-9.970472690297929597e-02,5.178001528131806475e-02,4.913614258225643128e-02,5.793830034525404571e-02,5.484173329512964656e-02,2.514479733886990087e-02,-2.868173953553386502e-02,6.469122988728820411e-02,-1.139923390304628525e-02,-3.628014711453107777e-02,-1.103216960425854043e-02,-5.030012567404316265e-02,7.476211556873577080e-02,-2.794416900510739155e-02,-7.284546813804658461e-02,-9.052821543813177607e-02,6.319784833919558920e-02,8.890957353538042618e-02,-7.383572675934919893e-02,6.794801964109384307e-02,-8.139390919646481704e-02,-7.417981127531525498e-02,9.815816220527845415e-02,8.772959201302993337e-02,-6.669277960946412565e-02,-9.441090135214623424e-02,-2.015837376371205913e-02,-6.205648414019167280e-02,-9.373371670897207020e-02,8.425597248140867523e-02,-2.704480547893584053e-02,-3.901617140680085222e-02,9.229955353780378013e-02,3.229822180783964436e-02,2.193677256047885105e-02,-3.743571672745740764e-02,-3.487038646696885569e-02,2.556523315993344814e-02,2.174747968366344542e-02,-3.625785022984583106e-02,3.119394323473381747e-02,8.290414519984246056e-02,2.905872991571303854e-02,6.384903663409322028e-02,-9.216940150996805192e-03,1.666211085137178638e-02,-3.813660913698222604e-02,-6.359200282585186770e-03,6.311502762531157051e-02,-7.553222405933116002e-02,3.415902962867786719e-02,9.916684722098245697e-02,-9.751483786486242478e-02,1.475038642890384721e-02,3.403077728469000585e-02,2.355268427856054003e-02,-8.290917180547381637e-02,-4.498058583623379403e-02,-8.136588453952756095e-02,4.756552486731374652e-02,-3.043475131257493416e-02,4.194669360352321075e-02,-5.277032233196095323e-02,5.352368390156150846e-02,-4.662395801442913851e-02,9.859161239405819788e-02,-8.549063445622347157e-02,3.120317393608332268e-02,9.159563764420614040e-02,-8.707018096886179337e-02,-3.529994522791411737e-02,8.397651831306823800e-02,4.706997344490940205e-02,-4.241560526644161389e-02,-8.992061157595308829e-02,-3.753428566135013494e-02,8.144316646759861000e-02,-6.564411590877319846e-02,-9.375586823119759494e-02,5.702256644423861487e-02
-8.318459535637519331e-02,-8.765843869260742105e-02,-6.034207031399923399e-02,-1.747620857573790876e-02,-1.929595459292385295e-02,3.192092317892827880e-02,-4.192225613865901285e-02,7.357731626660049540e-03,-3.371761978785381419e-02,8.028643700116591675e-02,8.487715256013231291e-02,4.680275854448312511e-02,5.861372369076256472e-02,-3.339779173226167797e-02,-7.422128419897860985e-02,-5.745652815603033425e-02,6.478853103095461030e-02,2.544967790696237020e-02,-2.998773768737945933e-02,-9.512220693335027288e-02,-8.723078878186243945e-02,-7.638056431076799269e-02,-9.225683264632938974e-02,-2.647926844136826163e-02,-5.418776863376977698e-02,2.817960394815843816e-02,8.185941688835426944e-02,3.664132544056947216e-02,9.497732031577615919e-02,9.907713312786434190e-02,-9.705087476547558101e-02,-2.637745297014763846e-02,-2.796079969357041783e-02,3.297583437648177185e-02,-5.870210356870440155e-02,5.620134051706457412e-02,6.783155105539465102e-02,-8.339799340892012358e-02,1.283801245128787794e-02,6.232450905540729003e-02,9.473308153617970850e-02,3.998200143085667291e-02,-9.093572856594381304e-02,8.819428986609478827e-04,4.411254106704498579e-02,-1.654745766485121727e-02,2.439145728936158164e-02,7.189823098887213049e-02,5.967364337815198039e-02,2.639325420218349705e-02,3.006273760429681308e-03,-7.811422484714057590e-02,-6.951865082441938126e-02,7.621661259807158140e-02,2.126139800343436470e-02,-3.826324378047521457e-02,8.309545214892727349e-02,2.508459461075690511e-02,-7.347600283043737024e-03,-7.065750825730679474e-02,-7.825551187705032108e-02,8.358091182366686467e-02,-6.264581502703017724e-02,-9.490527625838307557e-02,8.099881525406998906e-03,-5.516876702163478474e-02,3.247678727393671361e-02,7.394982170152167300e-02,-5.047232265277792895e-02,-9.241629418829888643e-03,7.498499507659878160e-02,2.871589796529069871e-02,-4.906375790592374525e-02,1.741003631027067400e-02,-8.690118210231521922e-02,-6.407242489399464502e-02,-1.594097055961488096e-02,4.337409739867126302e-05,4.587185646778979553e-02,2.458432554858736019e-02,8.515398438758009503e-04,3.557464515493502510e-02,-3.923175415123481002e-02,4.654994736456030680e-04,7.723477965916267229e-02,-6.345153990772653407e-02,1.745123303175384610e-02,4.355163852167842631e-02,9.075886045009479153e-02,-6.936778227252569928e-02,9.333629676366445027e-02,6.319297624685399350e-02,-6.501335407457473070e-02,3.693890115745557257e-02,7.901509541910245460e-02,-1.394772505271948959e-02,2.460286832585242833e-02,8.103945826373379346e-02,7.418340685862276351e-02,-3.852441887602658238e-02
9.947481267416399819e-02,4.877575107940723687e-02,-3.219464177457553866e-03,6.980984732461620323e-02,-6.840831341880045102e-02,-9.960384198750241169e-02,-9.185084453060204934e-02,-4.649505338095805129e-02,-4.540277613766385834e-02,-8.985361608440510517e-02,-4.510162145920676435e-03,-9.478838608482553774e-02,6.257064293784969644e-02,-4.728266749392948803e-02,-2.032420302401256873e-02,9.714865144106971107e-02,6.306951822769413241e-02,8.004211117135137665e-02,6.941383988727553578e-02,6.608298903369919097e-03,9.409811786180891091e-02,9.419565935637561060e-02,1.152245608090689266e-02,4.021875251564871467e-02,-3.411073329057759396e-02,3.677448725349613534e-03,-1.547207605917848283e-02,3.963141486760790588e-02,4.510686009414893727e-02,9.677349400238152710e-02,-9.501473360678214242e-02,-6.071809127960722807e-03,2.918744885755703011e-02,1.923462336107106818e-02,-9.406547091617539769e-02,-3.695417290274252697e-02,9.426911119550676621e-02,4.431497332406636458e-03,1.667546959765546510e-02,9.962762854193224493e-02,3.820488111583014712e-02,-4.968977204228282318e-02,-6.095679588059595144e-02,-4.127918248233011789e-02,6.159719076657985126e-02,-9.057846257978466320e-02,-6.655564095078261855e-02,-4.128974688712958724e-02,9.534104144115199131e-02,-6.775055572449391328e-02,6.994206714232661937e-02,-5.256951858904457264e-02,8.272480693702530252e-02,1.261703962219699882e-02,-6.285629277395327064e-02,-3.612803169917562507e-02,2.254336403759786556e-02,8.190939349205969555e-02,-6.341768212107364022e-02,6.660344872363724300e-02,3.613929200576848633e-04,3.325198538835918982e-02,3.194755987432440492e-02,-5.669753321282962333e-02,8.657010379623414353e-02,-9.927190736434486629e-02,5.745566210107375116e-02,2.702084681393188137e-02,8.961328545478505769e-02,3.424938180721376346e-02,5.002515367305263028e-02,-5.840694093550638510e-02,-4.495570291714878763e-04,-9.749480074369257232e-02,2.940419243344041811e-02,-8.803052694009905199e-02,-5.788142896584050345e-02,9.850120845148283011e-02,-9.537500047278080206e-02,9.352990425743654135e-02,7.090576948239296629e-02,5.146948756290900540e-02,1.969413756245610991e-02,-5.437311915431500275e-02,-2.800434022756666252e-02,-8.112301565074074572e-02,2.769903775608345553e-02,-3.211988596149022157e-02,-2.762332478079823628e-02,1.657048975579525352e-02,-8.215050064929192708e-02,-5.868699172716756313e-02,-9.977344187775760709e-02,3.072754270839042623e-03,-5.260555911338309770e-02,4.763801472276735227e-02,-8.540777365737298177e-02,-6.695716966795942082e-02,-2.604594957403900957e-02,-4.676337452137749318e-02
5.566573474768518603e-02,7.490559182615799672e-02,-9.758566676011520835e-02,6.220081378161082530e-02,-1.744032893857579147e-02,8.235236588500469135e-02,-5.071094643004375041e-02,2.460001993936833387e-02,6.638014091752605927e-02,6.941104653037530325e-02,-3.334475444815419853e-02,-8.383361568368333239e-02,-3.470107320223868308e-02,5.476337141004902764e-02,8.464043581891533830e-02,3.518862648813114724e-02,6.136821726323712922e-02,4.942314079436641028e-02,-2.243648487775304345e-02,1.367293563394708644e-02,-3.349611869775837025e-02,8.200326294369211788e-02,-1.996661322087893431e-02,-9.482355248193899411e-02,-5.050157098946470718e-02,6.499278165155317200e-03,-4.458248569155463109e-02,2.019428290961325367e-02,-6.937157291532143610e-02,-6.450209151472208191e-02,6.510751514654453120e-02,5.897349328937717683e-02,2.042271447257089367e-02,-4.976033451675741098e-02,-2.274753364781993692e-02,3.950963924180969644e-03,-8.181295061335494556e-02,-7.780728502006280245e-02,7.086058945862747094e-02,-2.626066093833233361e-02,5.756613180734029833e-02,5.212935388724385111e-02,5.854669364693074196e-02,-9.099831963727017525e-03,5.286832559158682887e-02,-7.120959542138259601e-02,-6.740820937535191293e-02,4.746302059910850746e-02,-8.836429930086604767e-02,6.291671404138696189e-02,-1.442282652402926413e-02,-7.515728086362748195e-02,-7.607691415034519011e-02,5.752992626522032693e-02,-9.084216260808160304e-02,-2.724064624003018353e-02,7.149786598108751057e-02,-7.826364861732136580e-02,-9.872608335176780159e-02,-1.680885161824412222e-02,-6.808437434068997929e-02,7.757050347968877380e-02,-7.972039139169873057e-02,-9.951578861188768721e-02,1.643950530393908926e-02,6.870035916400951681e-02,-3.046756996858050737e-02,3.208107458264225498e-02,-4.142715097612736930e-02,-7.409331391427056990e-02,-1.282918284670171716e-02,-6.239234064653516321e-02,6.714520709345944693e-04,-4.328343760959261349e-02,-7.217057231259148276e-02,3.729800682314757254e-02,1.095972773379502718e-02,-7.573493719273845237e-02,-3.280522161767292222e-02,-7.558813317618746919e-02,-8.430303167273199560e-02,-1.727585262629376117e-02,7.267315761019907394e-02,-1.380822247229407385e-02,-1.437611868952204386e-02,-5.869107878204180700e-02,-3.103977973175214844e-03,4.597827705671725385e-02,-2.608822115760231486e-03,-5.179291643094750125e-02,1.237998448685755093e-02,-3.773612958193244687e-02,-6.756126151416419479e-02,-8.963422638677549792e-02,-2.706545459958498157e-02,7.128735366061067502e-02,2.960533189946346067e-02,-3.862599280142611780e-02,2.556891143860040572e-02,-6.761728823948071065e-03
-7.838507695220031657e-02,-3.809234011008413856e-02,-3.582681801112057307e-02,1.354305163821070690e-02,-3.273557848909731949e-02,6.126514303902977354e-02,-2.978332992981949645e-02,-3.782665818677320019e-02,4.152118716473240934e-02,5.659891252271315176e-03,-6.098963882600144659e-03,1.768725069309076692e-02,9.853679827728537011e-02,7.105841155294773115e-02,-4.074733519545921390e-02,-8.681185947893317600e-02,-5.130736500548804813e-02,6.769204879598536562e-02,5.766273415294698168e-02,-5.925835453233035260e-02,1.977717140771470539e-02,1.348350375563564518e-02,2.938492754351082481e-02,9.539161779638094529e-04,3.771212177463192927e-02,-4.156431416103776449e-02,2.438811373959866302e-02,5.516030042791103538e-02,-1.314798239385669976e-03,6.477604232452269239e-02,6.298817245829071987e-02,-9.565713551454929631e-02,7.619958925918735027e-02,-7.566719176938595248e-02,6.969417720998341559e-02,-6.654781915376070667e-02,5.537611356562036069e-02,-6.160755997553493679e-02,-2.540628768060003428e-02,7.663463638585402138e-02,-6.058431418680530062e-02,2.467494599049183113e-02,-2.663748272576633991e-02,-8.272657691481150044e-02,-1.746569542068343583e-02,-6.887202531589517451e-03,9.241604723101939922e-03,-7.546192550978186864e-02,-7.221074198621596496e-02,-5.020136411818865163e-02,-3.330301564341885123e-02,-3.720495318715009991e-02,6.702921164329495030e-02,8.615342944400730674e-02,-3.943792134584518660e-02,9.798090510957543908e-02,8.252534408614883854e-02,-8.534538998006641064e-02,2.902923913100602382e-02,4.581661556616550834e-02,8.423556194213543957e-02,9.315603969666591544e-02,-5.205686606686273088e-02,-2.993166626478038772e-02,-7.121001708409943620e-03,-7.820734465106989053e-02,-7.330050340635414774e-02,-4.656804214846990697e-02,4.764467751574658072e-02,5.926093376345134556e-02,-8.771970526672366597e-02,-4.180502165835181527e-04,-8.669966204749271488e-02,4.661240610563932574e-02,-6.185142720389043280e-02,5.767195519033746498e-02,-4.218597445951353248e-02,-9.888721095472902123e-02,-3.807473019464009678e-02,-6.623107559089402852e-02,3.071186188858512911e-02,4.903656437010966984e-02,5.924620953959544578e-02,5.558357362263399715e-03,-1.118100232758570400e-02,-9.534329925538997941e-02,1.924542543760646152e-02,-7.893063874396318014e-02,1.911711332893799298e-02,7.502378046864982553e-02,4.314608275536221949e-02,1.918193454800205811e-02,4.272132377809084725e-02,1.898023139144977556e-02,-4.624942435051748735e-02,-5.916600935888863266e-02,9.952417452571610257e-02,7.912393750180565788e-02,8.241998609340570048e-02,-3.334905343227700936e-02
5.075897685168631601e-02,3.950018736408775211e-02,3.420915252409323370e-02,-7.477898092274920527e-02,5.865345897525633956e-02,3.665389624626241849e-02,1.848558573987163500e-03,3.218209411918579455e-02,7.788220970966305834e-02,3.340179321639752397e-02,1.946182854138514551e-02,7.648188032170652462e-02,-2.385736534068569337e-02,-2.545683561996324451e-02,-3.537136528664389101e-02,6.827184240280156913e-02,-8.190502470215504927e-02,-6.833756834909983369e-02,8.039484970428531496e-02,5.478841494900230091e-03,5.713610456557047246e-02,-3.323770132277613365e-02,3.880993825335718461e-02,6.690629870003725332e-02,2.006331110904674420e-03,7.063575996848120431e-02,8.825652223344285230e-02,5.519956174384008096e-02,-6.058961636419495783e-02,5.269251482145037579e-02,8.050437702267088103e-02,4.099481265718052381e-02,8.163331756926475724e-03,3.378479112351728819e-04,4.380351069673274478e-02,6.428381104221406184e-02,-8.291953616004472949e-02,6.516641203783110625e-02,6.384916624258973883e-02,-4.795444624498865910e-02,3.973013696279839579e-02,-8.845257560701660915e-02,6.217485920536386379e-02,-4.867520521435186875e-02,-1.627308844929768739e-02,9.910510314242279573e-02,4.024330764834951890e-02,-5.454053795836406870e-02,1.691981535522787961e-03,-3.308502827043986738e-02,-3.229066244645228956e-02,-1.858445159837601723e-04,-6.393594293320581379e-02,7.145460268229555933e-03,-4.211503445666864298e-02,-6.060648578373482170e-02,-2.264381477647532670e-02,-1.016653399682021508e-02,5.457136173965562720e-02,8.369096759057145785e-02,9.331022901111116208e-02,-9.027245050956603234e-02,3.288575306817961841e-02,-4.387700734668383007e-02,6.060148718336419438e-02,-7.329614483328715513e-02,1.673836790086533077e-02,-3.401218800042693502e-02,4.204500050691034607e-03,-5.497571974735404599e-02,3.994052917777898837e-02,-1.157839988291779754e-02,-5.897552082459958656e-02,9.379446647487521549e-04,7.311670915457621489e-02,-3.245737930200802424e-02,-9.366185175705635246e-02,2.741320470706795631e-02,6.239362281089080864e-03,-7.225385791076191500e-03,-2.126323083908285283e-02,4.137949636934251663e-02,-4.811484936740806351e-02,-5.606248925813886452e-02,-2.916340045299573025e-02,-9.867521596757207469e-02,-3.997090003286879467e-03,-9.923917356584187333e-02,5.350004548759884626e-02,3.403397542031097456e-02,2.009297291616322922e-02,4.457331591480453992e-02,7.332560058342457721e-02,-6.392901337061469846e-02,5.633391833772938284e-02,-7.658824270147085445e-02,4.226603524552219326e-02,-6.371262878693569054e-02,-7.800139996204689952e-02,1.790501632643078100e-02
5.412552959897340421e-02,-2.534039305210496196e-02,-1.610286593942363009e-02,1.890928474664435588e-02,6.619829602106669375e-02,-9.489664426240698725e-02,6.113893990495181119e-02,-6.077997982826446877e-03,-5.917503616702029373e-02,1.272499190637133015e-02,-6.971972970532760994e-02,-7.615409892668734138e-02,-3.007336623208019255e-02,6.194524213206986651e-02,-4.811965519301236033e-02,8.009676304559240623e-02,3.160389936434035429e-02,-5.757882917695847369e-02,-5.634145677491811388e-02,-6.671120378053724265e-02,-4.204486991124030404e-02,8.524238447571874655e-02,4.140007484686605843e-02,-5.843122263921876614e-03,-2.421869926873307377e-02,6.507584718426606685e-03,-8.851443702428239690e-02,7.782552129438088939e-02,8.855045272362274678e-02,-9.462721369516841063e-03,9.560549004632509784e-02,-1.837205448882561765e-02,5.815906351137151153e-02,3.312451025864177057e-02,-6.373338061782848896e-02,-6.297835939971421770e-03,8.816820548155437920e-02,-1.614919896926052256e-02,-8.826008140068895835e-02,3.093139890357576860e-02,3.572402108553579536e-02,-3.293071053826612804e-02,1.100740689829168839e-02,-9.619891698039861883e-02,4.430468636787313064e-02,-6.161448953607706613e-02,-5.689637215321561442e-02,-5.522553304206481717e-02,3.489477892889555899e-02,3.457368499933946571e-02,4.356255775490466831e-02,-4.008105028255819907e-02,4.213860605007649363e-02,7.969325259871928857e-02,8.830940221892277786e-02,4.190269713322644640e-02,2.828785254829918605e-02,5.840813116290818896e-02,3.417070980073752540e-02,4.526637456488477596e-02,2.376154736034705173e-02,-1.552530537503020447e-02,7.736569159282083441e-02,-5.464313306413481897e-02,-2.518946848210346090e-02,7.425127716629500996e-02,-6.535031041890029813e-02,7.632973467007095336e-02,-9.937300982085406353e-02,1.805714206146739886e-02,-8.592755008978798792e-02,-3.450022895043758364e-04,9.806807306492276721e-02,-5.643148299014642127e-02,-1.031969893695280915e-02,6.638149056595973874e-02,-9.132485755575035780e-02,1.674531157328451592e-02,5.007463899802053198e-02,8.052978397375890052e-02,-3.152221167300697791e-02,1.974367995218768990e-02,-6.601231809179181065e-03,-8.349342179707813782e-03,-8.170324976644033343e-02,-9.009506974611006247e-02,4.094848998302924592e-02,-1.065432012634495718e-03,2.286920975645775900e-02,-2.480388958267890076e-02,-4.855563114397405677e-02,-1.825015540578052431e-02,-9.451032283786331423e-02,-9.702109904765637838e-03,-8.017134821805355083e-03,2.359168431425159862e-02,2.915383154076134353e-02,8.647936670103328893e-02,5.698691669878810928e-02,-3.795035578418453487e-02
2.516816838175442439e-02,7.209958672272717695e-02,8.284296842850474851e-02,-3.040005523572737733e-02,-3.434984356939781158e-02,-6.704139399058006710e-02,-6.362094902875620184e-02,2.681843337208908440e-02,7.043937866761693090e-02,-3.606773093807151553e-02,-5.622597602346135481e-02,-9.222406647076707153e-02,9.084440209729990889e-02,-1.590270964223410022e-02,-1.710074179476162026e-02,-6.393320394026465181e-02,1.321161148536631469e-02,-9.831109365749629569e-02,8.133250170861403006e-02,-2.399371066404495934e-02,-1.080588095165527229e-02,-8.358499515159800719e-02,-9.838197716983645980e-02,2.785191829756053505e-02,-3.245945427457033738e-02,1.971241556985585397e-02,9.173501118727864223e-02,5.872149080176897185e-02,-2.584452141513676748e-03,1.126514159594156628e-02,9.905433867347770982e-02,-2.402437939278305457e-02,-7.063483850734718350e-02,-9.471171185231570810e-02,1.997077034899819026e-03,1.115559690666853565e-02,-2.539546324763204688e-02,7.466828462036750880e-02,6.900804163876503305e-02,3.933482583432673652e-02,-5.366615077924406091e-02,8.443047951016932617e-02,3.823774914468858199e-02,-2.296889000309558504e-02,6.528081178985942201e-02,7.820965899676843303e-02,-6.284670016929946867e-02,-5.246848988070558495e-02,7.476246902535119143e-02,-8.258540314036444396e-04,9.574783841051509592e-03,9.174944621621677898e-02,7.070678282653949931e-02,9.584538335711054180e-02,-1.462642867239180577e-02,5.118329532653320690e-02,9.617499587727185162e-02,7.694745983337028528e-02,-3.811076632692958488e-02,6.586123078269251474e-02,-4.599032744696738423e-02,-2.247989097514628554e-02,8.278609465876687890e-02,3.793062356006599023e-02,3.670036704971868513e-02,-5.792563606631435935e-02,8.093656979080418590e-02,-5.405532693179124909e-02,-4.312705867404471871e-02,8.051521951114984366e-02,3.376510534927310014e-03,-8.815832116743026192e-02,4.294156793769446367e-02,1.083219964574617944e-02,-5.700918669558361490e-02,-6.547691353313229989e-02,-8.515559024527469267e-03,8.000900608955083260e-02,-9.507965986967764627e-03,-8.912299064600980036e-02,2.982929802175576794e-02,-5.221561783498143705e-02,-6.810607664428969255e-02,-1.759753520750892419e-02,-4.100919342664166578e-02,3.826386229753245272e-02,-7.552405682279060561e-02,8.503134218525934540e-02,4.502035090578440646e-02,1.585394307909120115e-02,4.989813623727940017e-02,8.596116834860098588e-03,-7.450468217313642449e-02,-2.313674498808648838e-02,-1.306745984108434455e-02,-9.105737993030119104e-02,1.472344935570331359e-02,3.291055437808718120e-02,-1.901107573361268677e-02,4.280638824418867006e-02
9.975511701997047398e-02,-4.985689944332741264e-02,9.212404831784243298e-02,5.089370102559881426e-02,-8.265401501939169393e-02,8.375789432965005665e-02,2.707496035714734850e-02,7.086494975798895979e-02,-2.118709268792676181e-02,-7.992208092474394066e-02,-5.479604303435103851e-02,-9.491986954681716493e-03,-8.648332800234787010e-02,4.904232709367337129e-02,4.769587266230729261e-02,3.656496491018393358e-02,-8.893065888593042201e-02,6.989033638109098945e-02,-9.181834900956396817e-02,-4.609513814750738903e-02,3.835812556721801547e-02,-9.720162210076228881e-02,-9.300522089214356691e-02,4.926563812725695546e-02,-9.623923793076705202e-02,8.822631284712320610e-02,-1.591327716057899799e-02,5.666985617233524786e-02,-5.814802717101599794e-02,-3.081518449633557921e-04,-2.254759697606005531e-02,9.699002201596770845e-02,3.447428533429203190e-02,1.263546710424620634e-02,3.148022828902327652e-02,2.436355583807234271e-02,-3.373640156620896779e-02,-2.713817231842485800e-02,3.662672103790087785e-02,-8.485208876566732727e-02,2.147438006573594571e-02,2.148627518816625948e-02,2.493437242258186859e-03,5.165299505506512623e-02,-4.695424867784317446e-02,-3.515381031739060746e-02,8.539975208861455558e-02,7.577915672769175437e-02,-3.415314032407996969e-02,-6.723565733622252627e-02,7.080612596185439922e-02,3.589772049139419718e-02,-1.203958287731052290e-02,-5.368044081845033122e-03,3.731927793399938964e-02,-9.027750316315104329e-02,-9.296398794533733412e-02,-8.567666323936101724e-03,8.356870283178738368e-02,1.598255325673829386e-02,9.614312202127522911e-02,9.657268728103285405e-02,3.898101209020957136e-02,4.161175524126026204e-02,-3.577634383178106281e-02,8.246753168003662093e-02,-9.346681779844397131e-02,2.327087055347198952e-02,-3.897704203536638684e-02,2.703148604821739576e-02,4.048904270181591381e-03,6.007233330372011015e-02,2.062026809952904882e-03,-5.457469057945057295e-02,3.891378641958675999e-02,-6.397604438189302689e-02,-9.791960501546191631e-02,4.006646282663392511e-02,-7.778355414203340368e-02,-6.690756134908995567e-02,7.887998314320332494e-02,-5.211120880748494610e-02,-8.557108138481904491e-02,1.383399338541113632e-02,2.422477939868195040e-02,-9.491189478823058856e-02,-9.891937908333943430e-02,-9.611891318855897426e-02,-3.214644000677842339e-02,-7.973479019256796141e-02,-5.268222492198551543e-02,7.138015948017786827e-02,9.672696802443139785e-02,9.197759859474455291e-02,3.077469000882410155e-02,-6.830531928498784211e-02,1.847647348413652968e-03,3.365952447221115529e-02,-1.082950718327624351e-02,5.735953730357434832e-02
2.199409132537115397e-02,6.226363994973896365e-02,-9.839993005452907227e-02,4.968321395865679668e-02,-8.656227747356706748e-03,2.940546603735988418e-02,-2.585132181371729843e-02,8.743464202596945567e-03,4.957569586152610341e-02,-5.414856868519446476e-04,2.936920600331349718e-03,-4.034708548047238885e-02,-4.829647081814367193e-03,-7.577689718103571004e-02,-5.101005467667901055e-02,5.962926573781399120e-02,-7.431945533044211072e-02,-3.910608423270221096e-02,-8.646821601067636309e-02,-8.638189421389191880e-03,2.352923762563066679e-02,2.848857413540750727e-02,1.778531942524863574e-02,-9.318504456202031383e-02,6.282189279124536507e-03,6.484036489306474471e-02,-2.792038369460357605e-02,4.565405989090867700e-02,-6.755372340724004332e-02,-3.140930374339610809e-02,1.351618722762575053e-02,-3.002743163139909299e-02,2.925300817503104223e-02,4.684310973861624539e-02,-4.688054736000424327e-02,5.489303702494260917e-02,7.302487609575256111e-02,-5.532507254805263397e-02,1.572822138327739649e-03,-9.696823184850400512e-02,-6.775993737732227684e-02,1.803605220545301258e-02,6.745300256772129854e-02,5.240634753876036167e-02,-1.054198651572554879e-02,4.146954107885206242e-02,7.575391048092924851e-02,-9.995664579900948032e-02,-5.003588065966768639e-02,5.217897910057073263e-02,-1.932262264738610069e-03,4.812670375621191932e-02,-3.305482091277245349e-02,2.911199479201134754e-02,1.523990838742425580e-02,-9.352917019132173104e-02,-9.460607097374507113e-02,-6.676222769046449845e-02,-4.705468386422693300e-02,3.135415889435347325e-02,8.078279187837036912e-02,-9.879304408022847317e-02,-2.458268750692521598e-03,-5.656362359428129122e-02,4.995705759333907148e-02,-5.803083414436893683e-02,6.507226277677663484e-02,-6.359582764898770446e-02,9.507263512607996847e-02,-9.322210577818970667e-02,1.967454650461537835e-02,9.661252230966016485e-02,3.196382161319288873e-04,9.331632960690705580e-02,-7.425684263880927283e-02,-6.435928497112015922e-02,-9.258105020812067154e-02,-9.489881645671205401e-02,-3.572712257721777362e-02,-6.008003919347118527e-02,4.102006143758690770e-03,4.677896100138465019e-02,-9.831625455841011552e-02,4.994150038200434460e-02,3.299823898207107642e-02,-7.670077916462564316e-02,-9.201222932572711288e-02,7.683712220416114014e-02,5.425842425792654078e-02,3.687463119843398252e-02,-9.615671691852792358e-02,1.109530315734268135e-02,-1.461382963703405924e-02,-7.489263503059989668e-02,9.883219068511048255e-02,-4.992469739151805808e-02,-8.527650170996384227e-02,3.148731932957657409e-03,-5.072138697761539167e-02,-5.259332778781753565e-02
-7.882281580230546258e-02,-8.538846046066449202e-02,-6.429962973129449422e-03,9.572664360070443079e-02,7.895699673174230715e-03,6.757928624752992941e-02,-1.654274728507980352e-02,3.227898542544349603e-02,3.151752942891344889e-02,3.709222400928538499e-02,-5.207878940149353320e-02,-6.990079372858920559e-02,-7.627330203924698182e-03,-3.208214205591530810e-02,3.850453825076546877e-02,1.287762994603244837e-02,2.537385201946562585e-02,-1.361859956293114127e-02,7.673848379562309141e-03,6.689373587481639571e-02,-8.940019985696366633e-02,-7.785960539798486568e-02,-4.620971847196153615e-02,1.254059690397046900e-03,-5.737292110329481748e-02,1.546558746995932432e-02,9.007532608176105349e-03,2.636321915388234460e-03,-6.444578616855778375e-02,-4.661722600964864072e-02,-1.368421677465110620e-02,-2.526896462212942229e-02,7.100939874698175558e-03,-6.570862629672477584e-02,6.352921133917785457e-02,4.607130373127585332e-02,6.215751809332262234e-02,3.625645300189253573e-02,4.204752157387575684e-02,-7.695179319689221531e-02,8.570130040319087761e-02,9.124442821483544352e-03,8.699140329158502882e-02,4.714382969951136371e-02,-2.313672432585363314e-02,5.063074900459943462e-02,7.191718165564708887e-02,8.626955386960599714e-02,-4.635866404043818140e-02,-1.311421367904452850e-02,-3.899577492710912946e-02,-5.156746796159084045e-02,-6.279442872238169548e-02,-2.389177978394403656e-02,6.039399078591334291e-02,2.615115533242745594e-02,-7.644000736552131192e-02,-7.140315318581205717e-02,7.011804234586319073e-03,3.804061482357798396e-02,-4.852696907560048040e-02,2.581006105033131770e-03,-4.519239850084362520e-02,1.529516752619819453e-02,-4.441909948959552740e-02,-2.404206110457021706e-02,-8.956382220529746085e-03,-7.465770779687408432e-02,8.962209869969345322e-02,9.891528621367784435e-02,5.801599716084324121e-02,-4.817873398497068971e-03,-7.451316160264570554e-02,6.019435709638892851e-03,-1.933436589325349120e-03,-5.235258965641105544e-02,-1.209703191186642379e-02,6.861991155604152404e-02,8.165635016424513393e-02,-7.104140057012625631e-03,7.684096117174696317e-02,-7.238282697174108771e-03,4.910198225334269639e-02,6.935833093364154878e-02,-8.128171854672963659e-02,6.505316175636263742e-02,3.631677508758276995e-02,-2.810398521247496617e-02,-3.572042616005065285e-02,-4.382232131734713904e-02,-6.031643694874615907e-02,4.984545642939741672e-02,5.055500559015332906e-02,-7.551543816597300340e-02,3.163017914124224839e-02,2.122703949733677209e-02,9.263129299138136985e-02,-3.287186127671620772e-03,1.072337965511804825e-02,-1.508406100244215342e-02
6.137721929142207072e-02,-5.932182665679952560e-02,-4.649200649234501437e-02,5.060878392330778186e-02,-7.901380886357371736e-02,-2.453712074185315090e-02,-3.054764260056516342e-02,-9.580297163222853407e-02,7.193502284406017890e-03,-2.272650508091433180e-02,-3.898391902022740191e-02,-8.474500518922099823e-02,-6.464137596863210600e-02,2.445577381161520222e-02,7.045550960395842097e-03,-4.002457232676438076e-02,7.595883422802966571e-03,3.800445343113868779e-02,-5.831103603028930243e-02,9.303008123073795710e-02,-2.092414740855538802e-02,9.403960320189168332e-02,-1.801415929755249140e-02,-4.181175776544407419e-02,5.047372400853082641e-02,9.029879546761805653e-02,-7.939006383259676614e-02,8.296731707208021556e-02,8.227257327048330404e-02,-4.728584333646721621e-02,7.383179038306598996e-02,4.730808071201297871e-03,-5.344734762878299017e-02,9.480018104601826978e-02,5.761313452989304251e-02,1.441446359528866968e-02,1.455340688722309150e-02,6.488807251389297481e-03,-2.618926069652657493e-02,7.274487363582572697e-02,1.741399782346287825e-03,-4.986669583703301836e-03,6.683258631737989952e-02,9.726342891247309608e-02,6.209869651802902429e-02,-8.553425413019703771e-02,-1.528388886506387191e-02,9.727049393533830635e-02,-5.667904044723100221e-02,-5.961441534173834295e-02,6.919655052300401066e-02,-6.574957720405162631e-02,6.811292312056656251e-02,-4.159025379695057562e-02,-9.486970707418839605e-03,-5.574739503849294314e-02,-1.614274850831947522e-02,7.987021398009412632e-02,7.462731739735543879e-02,-1.910471219442505877e-02,6.102570984503784268e-02,-5.208828797329113219e-02,6.445828464708151795e-02,1.699052822909050825e-02,-4.616886413452753885e-02,-3.793401858762636414e-02,-3.564578222969456978e-02,7.449728073971417786e-02,-9.359971784808984729e-02,-6.778785030687184410e-02,4.435268856024368600e-02,-4.399077569814971618e-03,-6.454670352428300110e-03,4.681900062282554065e-02,-5.723925179667781887e-02,9.523255117371293155e-02,-3.106772580335944930e-03,-6.365244779752582405e-02,-9.075750074133002304e-03,-1.118397095486038315e-02,3.173648258559312596e-02,6.971812935527897659e-02,3.510494416495316822e-02,-2.423075670755281755e-02,-4.865937907832112996e-02,-5.990587166169275557e-02,-8.750124987430536738e-02,2.526642280279975047e-02,8.955602306541622648e-02,2.489595829310677771e-02,-2.007792663285284593e-02,9.548510462647506747e-02,2.914882905157177920e-02,-8.271741194164737576e-02,4.034973977014685159e-02,-7.138793012124899917e-02,8.895935521604639903e-04,1.197103329588187007e-02,1.397729301041902676e-02,7.067487905070497789e-02
3.867051317110102582e-02,8.067648833909538131e-02,1.861121197784865525e-02,1.265192340894545804e-02,3.103706130442803260e-02,-4.337955416984486112e-02,3.110970791079856537e-02,1.957195858086971385e-03,-2.691799545421485335e-02,9.156812836445787918e-02,-9.062354486914950963e-03,-2.959631414480656461e-02,1.192328584367103629e-02,-5.448456343001672163e-03,8.055117959805305856e-04,-8.467288777513901077e-02,-6.759100294352830829e-02,-6.528757275955968109e-02,-8.888537873311622151e-02,-4.454343038348922146e-02,-3.108396577187662671e-02,-1.820078983879816828e-02,-8.774888065942319793e-02,-9.349006207399855606e-02,-4.601401421492773425e-02,-7.293377603836723004e-03,-6.808283588538008302e-02,-5.698868793539995509e-02,6.220295490054911225e-02,3.603453349733408417e-02,-1.815184031277752852e-02,8.379675989193896557e-02,-8.698809672665105963e-02,-3.515342473602008078e-02,2.920761637109329373e-02,-4.445768876066273634e-02,-4.423096691143970499e-02,5.737854764664094415e-02,3.367647067456760318e-02,3.785536982422619406e-02,-1.016428929554775810e-02,1.636310820012754769e-02,-1.158160645924547621e-02,-5.979552214952780359e-02,2.759673898211130114e-02,-1.678683456220535913e-02,-2.534399690607668995e-02,-4.461247054197506334e-02,-7.192827951659366836e-02,4.807851945948495020e-02,4.103610003476917262e-02,8.826792833369748181e-02,4.245201504908135276e-02,3.301121011442580827e-02,7.630006012567395850e-03,-3.414697572981108264e-02,-2.288635304106371657e-02,8.814607752104189342e-02,-1.667099601520987198e-02,6.315214708007806099e-02,9.662861887448365161e-02,-5.357613244237010436e-02,-2.566712442349405876e-02,-1.383108375164182266e-02,2.355917662347825278e-02,-4.049977292320998401e-02,5.093561425086622942e-03,3.072854645722536415e-02,2.201733766386678934e-02,9.584904608575136459e-03,-9.210643839344234696e-02,-2.222067085100734932e-02,-4.476784680820341394e-02,-1.380069554684218089e-02,-1.418921006399651540e-02,6.957670874311299575e-03,3.301517827437674968e-02,-4.989728631883810772e-02,2.290514054559484453e-02,-3.758560866136372025e-02,-2.978223890370510288e-02,-2.087459709450158879e-02,6.408213561905139188e-02,7.848546201914044507e-02,-2.132021126145078327e-02,-8.071776583427534013e-02,-3.965182800927150031e-02,-9.582242214860939300e-02,4.891190770526134685e-02,-1.249561320845998628e-02,9.917638355311465814e-02,2.808396872509936332e-02,-2.041140106756456768e-02,-1.836906728559669494e-02,-4.681871355071414581e-02,9.426981661968955595e-02,-4.591167082074687489e-03,-2.683329006435803896e-02,-9.688332847260368308e-02,6.960619391285095825e-02
-2.193754048040623406e-02,9.048910702010612428e-02,7.816602325069334917e-03,-2.744602427816569476e-02,-8.654726308803101231e-02,8.647212903558568198e-02,6.609561475625271021e-02,7.570945516586156943e-02,7.223855047285745144e-03,7.289252406797190609e-02,-6.888968921529863010e-02,4.096494995292478125e-02,5.473297381587262367e-02,-2.640661906942520093e-02,-2.872768343447914055e-02,8.581300792085366780e-02,8.126077096764636187e-02,-4.336251572359609702e-02,-2.040008986836273908e-02,-9.244191788219055517e-02,2.320310001632607672e-02,6.492939554420251724e-02,-2.325171597831890424e-02,-1.156023376721587032e-02,-9.546150426791828736e-02,7.746405032330971885e-02,-3.003664370274614862e-03,7.646355741442704967e-02,8.229127218001777710e-02,-2.233952118316465466e-02,-4.945990931035841587e-02,8.480487463758611122e-02,-5.910748683191764663e-02,-9.047782958066832859e-02,-8.529578943080702580e-02,-3.686471714875378530e-02,-4.984952184544919063e-02,9.418456262460805917e-02,-5.674239175984981814e-02,7.839278937453421359e-02,-4.301012361756605118e-02,1.999083529182789018e-02,-4.761947856848789545e-02,3.941063381888752076e-02,-5.739149184905700113e-02,8.210354288461202410e-02,-5.218443208199629452e-02,8.945858828191713408e-02,-7.758256866659998807e-02,-8.245228012739887202e-02,8.794589639451112772e-02,-3.137919819506463509e-02,9.044836629685794327e-02,8.661484815260392378e-02,-6.950519335599499027e-02,1.809014810148969546e-02,1.655333523265310053e-02,2.599911745279265274e-02,5.387843882854917443e-02,4.169780271681194916e-02,9.994009856170700534e-02,-5.609115019453637940e-02,2.994305356990738590e-02,-6.473774251194429688e-03,-5.717928090156485649e-02,-6.097823948388667731e-02,3.584232842044007133e-02,9.606474673298109890e-02,-7.555713768985662659e-02,-2.566097236619496735e-02,8.534580104155785329e-02,-5.216258365683732606e-02,9.142999730050847818e-02,5.717847271744366799e-02,4.405251342788340380e-02,-8.508253054378171754e-02,5.315265123980469908e-02,6.642652210913817246e-02,8.763725059299490305e-02,-9.517886823708474053e-02,5.912135716285659565e-02,5.810404935349371136e-02,-5.197621589761575872e-02,-9.088262145094356398e-03,9.010676811715827295e-02,1.020983022419878067e-02,1.918363104688482462e-04,-7.477683671376581659e-03,-6.950551598916006324e-02,-4.142390186513704442e-02,-4.809896816701290934e-02,2.549339142430696523e-02,7.561953694896723921e-02,5.488082241408027973e-02,2.748212585621934850e-02,-7.939394265936482176e-02,4.268971662892130821e-03,3.307591948723364456e-02,4.515141555131482742e-02,5.688030152396471306e-02
4.838009413663436203e-02,-1.485794793305184915e-02,-4.564051179854432261e-02,5.167437518487492942e-02,8.779148892972118978e-02,6.570200750920449084e-02,9.755613802443854898e-02,-8.267149691553881546e-03,-1.726440094785789206e-02,7.124261704104299653e-02,-7.174726406193435158e-02,8.695824548497629869e-02,6.215513160922976621e-02,1.013580137565261129e-02,-6.896977453215590026e-02,1.777196255641933171e-03,-8.466549048197488658e-02,6.913841208296767071e-02,-7.345767964021329699e-02,-3.225468050570344525e-02,8.107141332532015465e-02,-6.014934123166330859e-03,7.169993007203127357e-03,-4.437745470437422235e-02,-6.012670111186362021e-02,-4.289429716684538957e-02,7.648954385655694355e-02,-8.638331858614043540e-03,9.706459301285606800e-02,-7.023718040226642478e-02,-4.834656407242056593e-03,4.600708990155694816e-02,2.022310294924661855e-02,-6.433780562673263592e-02,6.445002716240523510e-03,-5.781901392957455865e-02,-7.290591602976463637e-02,-3.325075408703275642e-02,-2.321851988087720448e-02,9.188436048442767679e-02,6.496150843666854968e-02,-2.214183889075779441e-02,9.020548626428213923e-02,-3.067061216619943256e-02,-9.134467917306361359e-03,2.180542388594562675e-02,-6.552520354633444184e-03,-1.996718971733082992e-02,6.390484298138829344e-02,8.897426737417776788e-02,9.345194861777736395e-02,2.594622658711686486e-02,-8.313490436963573427e-02,-1.163490633187813476e-02,-1.159209290880207355e-02,9.791925386331644388e-02,-3.016850111045734847e-02,-9.231061000932772043e-02,2.049332851882527951e-02,-6.996838550904113663e-02,-7.928651005538780994e-02,-9.652960666795160072e-02,-8.944745969150751444e-03,-4.208262027939314864e-02,-9.399463876165266296e-02,4.763122925290812909e-02,-4.424441052323165036e-02,8.688214692864214272e-02,9.564762465916468170e-02,-8.477957840763937492e-02,-9.662670714973253805e-02,-3.248607477547399425e-02,4.455911825125062034e-04,5.602799906307515468e-03,9.407553333544677043e-02,-6.245518467193900136e-02,5.437549044872438085e-03,-8.857305745356959525e-02,8.967937738142947590e-02,6.505251056845155755e-02,3.945461846427596349e-03,-9.404012450268797729e-02,3.326623648293398211e-02,-1.498591884306915874e-02,-8.743892162081016994e-02,-8.591547382932226973e-02,-7.748458217457650232e-02,3.036053254241346394e-02,-1.405140899797200217e-04,6.695744880768468577e-02,-6.349072646310618961e-02,-1.506414375173496627e-02,-3.205247082744644427e-02,-6.355348122072264870e-03,-4.685714681302344253e-02,-5.497126614375091869e-02,-5.754632343903848951e-02,-8.346962921650255551e-02,-1.473882348272137618e-03,-8.331147249344884875e-02
-6.750273153225203569e-03,8.896144560952863600e-02,2.895246029445344704e-02,-8.169603234011993398e-02,-2.987732948475472702e-02,5.520476498337695270e-02,-4.146194994242211745e-02,-1.555505409476154802e-02,-2.880691031971831934e-02,-5.349373668216043237e-02,-3.722740320439674178e-02,-9.274674525162475425e-02,-4.025470413104459411e-02,2.171568224853747883e-02,-5.293699032560920253e-02,-6.460478898567319217e-02,-6.384194204365553280e-03,-8.447958885701128962e-02,-8.223818562706569635e-02,-6.441862337985314324e-02,-7.595526333939797703e-02,-1.424618132624841989e-03,4.264938319727096250e-02,-9.570519460811548196e-02,2.769090123975393933e-02,-9.345710028028537952e-02,1.428248022657382585e-02,-6.326478285500974907e-02,-8.613578667725439730e-02,6.250780124358348844e-02,-3.244337030037248645e-03,6.943238596281932351e-02,-1.246392157484483773e-02,-2.525961077241203889e-02,2.481590764918810421e-02,8.712584998307802697e-02,-9.214372612298249443e-02,-4.204372057593890738e-02,3.895010045897279866e-03,3.276939144632583234e-02,3.186558796421384843e-02,-9.343485879591381660e-02,9.448947579038208255e-02,-3.824595762784722963e-02,4.787612810355602877e-02,3.666291282017434400e-02,3.082921172298423371e-02,-8.551241206671984785e-02,-3.163312926417670423e-02,6.936013138675779788e-02,7.275828724153007854e-02,7.304995389458873722e-02,2.664835546907223449e-02,9.258614515035734627e-02,5.213872314067041769e-02,-1.714586718237540164e-02,5.338060388084453489e-02,1.304799551648158640e-02,-1.574657460073320553e-02,3.531275292040537278e-02,6.502846517762789214e-02,9.153097122151002130e-02,9.143352797964149348e-02,5.673404556338540287e-03,-1.152582121436451432e-02,8.570064764786604339e-02,-5.345270562703429568e-02,3.436702966374307472e-02,-5.498160893510190689e-02,-9.962083367467859663e-02,1.618515639132856940e-02,-6.840845138144235893e-02,-3.181065789423793283e-02,9.136247640654435176e-02,-7.727536042244738390e-02,8.987862329651905013e-02,6.117775957511163709e-02,-3.359897909269991909e-03,2.318418631817656395e-02,-7.842145221508045605e-02,-9.610711587907154463e-02,-3.389199476063102512e-02,4.603123326682827254e-02,5.155060637221023367e-02,-7.928031913673332098e-02,5.279467307891528433e-02,4.233936966199006863e-02,8.052052596524378325e-02,6.787900484979753069e-02,6.148576710363592990e-02,-8.456776216314225436e-02,3.375490967897289835e-02,3.262495476528694954e-02,-9.773406103802703693e-02,6.800450779380033672e-02,-4.850166921824956845e-02,8.729640136148800189e-02,1.014490874636546011e-02,-6.483241752026433491e-02,8.402261394165998210e-02
-3.547402136840981796e-02,-9.407654480440745537e-02,-2.195309206790786033e-02,-8.125086406844101924e-03,4.779447906657039585e-02,5.883198422121384795e-03,9.983595050533451698e-02,8.575587107592060054e-02,7.636204485477088300e-02,-4.842510448482952035e-02,-4.090993211229897869e-02,-5.266116729458371337e-02,-9.422799371668494350e-02,1.119151893506565264e-02,-9.529536219083269144e-02,-2.969779356137749321e-02,7.029772747852918585e-03,9.209174688609340909e-02,-7.758800602564563942e-02,6.745640364328119032e-02,-6.475699131227119487e-02,-8.461307448180575841e-02,8.250764746577120279e-03,6.336415695682867666e-02,1.918521857364816410e-02,7.315237608060275176e-02,6.248120974581452235e-03,-1.671119802434275353e-02,-9.440932317510215832e-02,2.866352594055700947e-02,-9.512944369093294383e-02,-3.345772701623019735e-02,-1.030386465046637390e-01,3.174068802674595569e-02,6.175804707114945086e-02,-4.038277809791248479e-02,-4.581278803894456297e-02,5.018409613521334148e-03,1.531227916917578605e-02,6.081833634272065803e-02,-1.674509170743702230e-02,-1.579187549920509775e-02,-7.809394733596607130e-02,-5.386288141525629597e-02,2.504500102312958582e-02,-7.495694845261975658e-02,-4.779367419278623963e-02,5.690789419491133760e-02,1.472311281055646397e-02,8.346608459485437004e-02,2.336157709976475344e-02,-2.382246092968509643e-02,-8.430962049036477834e-02,9.661010157578317492e-02,-2.434551000478504118e-02,7.837809549692331679e-02,5.224801373609570115e-02,-8.612999298009720722e-03,5.948232633395562213e-02,-7.465009622979291515e-04,1.689027461297956667e-02,3.639991506296344492e-02,3.505878394815580001e-02,-9.986574462913763717e-02,-7.731032686002169141e-02,5.956180845833793092e-02,1.038886408986164529e-02,-8.007254210144276740e-02,-4.543800891311981088e-02,-7.214292992783705172e-02,-6.619840206628965339e-04,-2.113769484439557977e-02,-8.923639430933655303e-02,-6.637283219991035876e-02,9.792964030388211227e-02,7.849254551347552289e-02,2.154411819739920561e-02,-7.253878980182916492e-02,1.662596547100366265e-02,-8.363526645394067649e-03,6.460092957806625423e-03,1.938322795944887739e-02,-3.074647138808837832e-02,-7.740460805963367275e-02,5.807680566489229618e-02,-2.215596313774903514e-02,8.785753641858470853e-02,-2.636092204992818155e-02,4.285836055491978208e-04,-1.034526665503115832e-02,-4.022161557649418795e-02,5.984634052776493379e-02,-9.201736510210237197e-02,-6.595542922178218581e-02,6.048257955300372253e-03,2.600384807860335254e-02,-3.289919650455488953e-02,-4.108405354637611334e-02,-5.500862219771946761e-03,-6.321204366140525943e-02
3.705743269532128792e-02,-5.719088460892827325e-02,-6.776111729705551479e-02,-7.753538892077234401e-02,-3.994080115228721556e-02,-8.125101504354555193e-02,-4.250246053571828109e-02,-3.430365886067048703e-02,-6.812955352380138663e-02,-8.882473297415019453e-02,-2.037683458534338826e-02,-3.536104418734229565e-02,-7.655814838766747399e-02,2.306249118152091382e-02,2.836668660074938980e-02,-9.500766503321272927e-02,-9.772989990708408348e-02,-5.342422752816799320e-02,6.781151620916914258e-02,-4.914858853429447151e-03,4.237426262780560199e-02,7.526432491416613912e-02,4.784503974211978816e-02,-1.087716169200828205e-02,1.854153650841910191e-03,-5.414808880674260722e-02,-2.184992883085521212e-02,-9.029346017190430229e-02,-5.882736454418756311e-02,2.646210793065087094e-03,8.005021494213365729e-02,-7.965193571920343996e-02,-4.517978188475582635e-02,3.648581060806666693e-02,2.901976790586580091e-02,-9.016481296332518047e-02,8.787522415480084059e-02,-3.427861820155500561e-02,2.145992262850036653e-03,1.374793388803308668e-02,4.183071112859332308e-02,-2.621929884206523897e-02,4.124360033660497138e-02,1.853185471209007479e-02,8.102930343422611037e-02,-6.837089932388157321e-04,-4.901314319777470840e-02,6.183515426329962150e-02,-2.691702303369209251e-02,1.651515441252093472e-02,-8.817314650782307958e-03,-1.028014764680942363e-02,-5.808896664004942895e-02,-4.699976446933639557e-02,-7.157555473158390413e-02,8.607545783089022573e-02,6.055004032579272555e-02,-8.058879327875598242e-02,-9.131627339944761723e-02,-1.007751155580608321e-01,-4.031997793035481392e-02,-9.601216958044797578e-02,-6.532331210313478687e-02,3.344176938253761583e-02,-6.827311993567926340e-02,6.308689064334825625e-02,2.287820969640079818e-02,-2.994233393300348850e-02,1.217099125190175546e-02,-9.320948849384885770e-02,-6.584897667035110452e-03,5.993468903894703936e-02,1.663890976482952297e-02,3.103030289000454842e-02,2.370996600586922770e-02,-1.448492154288535602e-02,9.430138880868793594e-02,3.853377024372284243e-02,-6.928963168058248356e-02,-6.157071013606072590e-02,-8.921864970398764305e-02,5.652913809713863008e-02,-6.672622497610324055e-02,7.202784273176339458e-02,-9.989542294894719621e-02,-9.839692733059161867e-02,4.470040041650083507e-02,9.686122206252932576e-02,8.078288772039010288e-03,-5.233599968970512745e-02,8.119296179523614876e-02,1.671248073569358032e-03,5.732513264869768671e-02,3.916363709065797533e-02,8.107874568189539499e-02,8.109888021815278569e-02,1.033818748822296352e-01,-4.474484889231421236e-02,-3.750900890224281858e-02,5.914991174778939237e-02
